{"learner":{"attributes":{"best_iteration":"721","best_ntree_limit":"722","best_score":"0.774490157178126","scikit_learn":"{\"n_estimators\": 1000, \"objective\": \"reg:squarederror\", \"max_depth\": null, \"max_leaves\": null, \"max_bin\": null, \"grow_policy\": null, \"learning_rate\": 0.05, \"verbosity\": null, \"booster\": null, \"tree_method\": null, \"gamma\": null, \"min_child_weight\": null, \"max_delta_step\": null, \"subsample\": null, \"sampling_method\": null, \"colsample_bytree\": null, \"colsample_bylevel\": null, \"colsample_bynode\": null, \"reg_alpha\": null, \"reg_lambda\": null, \"scale_pos_weight\": null, \"base_score\": null, \"missing\": NaN, \"num_parallel_tree\": null, \"random_state\": null, \"n_jobs\": 4, \"monotone_constraints\": null, \"interaction_constraints\": null, \"importance_type\": null, \"gpu_id\": null, \"validate_parameters\": null, \"predictor\": null, \"enable_categorical\": false, \"feature_types\": null, \"max_cat_to_onehot\": null, \"max_cat_threshold\": null, \"eval_metric\": null, \"early_stopping_rounds\": 5, \"callbacks\": null, \"evals_result_\": {\"validation_0\": {\"rmse\": [16.986492520687882, 16.145122179275305, 15.346317042787042, 14.586297650544186, 13.864945403382885, 13.183592270987127, 12.533179460651322, 11.915427133361256, 11.332085386255175, 10.775194313499236, 10.249003567267772, 9.748013319112864, 9.27140826549022, 8.821516835013224, 8.39331967349589, 7.988258395893037, 7.602560008462299, 7.237913981412513, 6.891558287743489, 6.563527996803327, 6.251654156266318, 5.956525614329413, 5.675440340460272, 5.409465993347451, 5.157030155451, 4.9157577571525595, 4.6891784862187444, 4.47526176381949, 4.271699658753054, 4.078332789827655, 3.89710419406656, 3.725036149506206, 3.5611571069964523, 3.4061523401540867, 3.2582903505162006, 3.1202878664139897, 2.989560927285645, 2.866762904988047, 2.751300248419062, 2.640734306551455, 2.537299760404331, 2.4411910877505747, 2.351355313782619, 2.264368696491447, 2.184554970726329, 2.110094592212873, 2.0382228999631646, 1.9689130219312183, 1.9059407474896093, 1.8434512081289718, 1.786351982642805, 1.7331308045275877, 1.6840402978665006, 1.639571020871264, 1.5919663949091138, 1.553921919906446, 1.5149168117306637, 1.4821421912498087, 1.4452349293247704, 1.4162993102107806, 1.3904953059033058, 1.3667255245446874, 1.3430693304420191, 1.3219760472687052, 1.3026672358531526, 1.27772041993718, 1.2614225464492952, 1.2462281273174967, 1.2293812904062509, 1.2162857959802347, 1.202235914543684, 1.1899898144646552, 1.1800011269977033, 1.163655735363666, 1.154990891666212, 1.1454547134967883, 1.1365267038770652, 1.1298844335204867, 1.1180657673124053, 1.112532959198458, 1.1060021149228134, 1.1009189444203549, 1.0943220312063984, 1.0903472645596306, 1.0850838506940033, 1.081524327897129, 1.077723220714532, 1.0728930422608811, 1.06931366925197, 1.0646271052262144, 1.0620789302312283, 1.0595529403470625, 1.0553584179305358, 1.0509329481399405, 1.048654635046068, 1.0468612489412843, 1.0420258265516513, 1.039902256268055, 1.0378333847707324, 1.034464437214888, 1.0325615901805667, 1.0314184828698698, 1.0276535279631152, 1.0259178077300848, 1.0215523706423877, 1.016495294835345, 1.014915218287246, 1.0141033129624395, 1.0109059546735022, 1.007940484554871, 1.00592826174466, 1.0046431358479582, 1.0037837181302873, 1.0025494621031235, 1.0015644699860975, 1.0004815918000518, 0.999392782729972, 0.9945459836991697, 0.98846618931354, 0.9878124263001355, 0.9867105435167274, 0.9835059497902483, 0.9816372875400021, 0.979397251817745, 0.9790493134550462, 0.977348121429606, 0.9763263258855586, 0.972757115511973, 0.9721786584403314, 0.9692508848581004, 0.9628016256947868, 0.9622145643151082, 0.9579334099413309, 0.9571911953496686, 0.9563233293190339, 0.9546044989173794, 0.9492985615648466, 0.9454845657583146, 0.9441419062166702, 0.9437281907871661, 0.9387720734354672, 0.9380570974326573, 0.9359732923831333, 0.9337922133887302, 0.933063637627227, 0.9326938462606346, 0.9319502817131636, 0.9290639150900035, 0.9283475467501277, 0.9279268142637016, 0.9253029272183871, 0.9249462919215536, 0.9245918342607208, 0.9204775484292608, 0.9183547789012125, 0.9156024733716767, 0.9150047631765887, 0.9147245008860458, 0.9145549757347203, 0.9142637864827335, 0.9137173809533082, 0.9122258054820739, 0.9088176072955446, 0.9084569816924065, 0.9056515291660187, 0.904430265831543, 0.9037532553204759, 0.9033848525356457, 0.9029784618893101, 0.9026161333934417, 0.9021378142078291, 0.9017863596913328, 0.9009629841598672, 0.9004422426033419, 0.8998870492080245, 0.8993133664959785, 0.8990680294834914, 0.8984236060178837, 0.8978721470601813, 0.897625394343406, 0.8971740942330557, 0.8970642602146979, 0.8970069147020505, 0.8967383537293462, 0.8951025843821652, 0.8950268105087289, 0.895071286679248, 0.8947480951223183, 0.8943689571478095, 0.8932226169247665, 0.8929374172826199, 0.8912109124704269, 0.8893790761315518, 0.8882701522248488, 0.8877008652136456, 0.8853699585365465, 0.884904859007749, 0.8846544507861587, 0.884649731162817, 0.8844039741969889, 0.8838649068073511, 0.8838286360747426, 0.8832714892765663, 0.8828819408676459, 0.8823714620321768, 0.8821330707035234, 0.8815384660717194, 0.8805886501182137, 0.8802928381967983, 0.8792784219088816, 0.879260787085906, 0.8790765372665644, 0.8786231284554661, 0.8780915965063452, 0.8773248404427019, 0.8769513228614546, 0.8754741893381456, 0.8747131441690982, 0.8745370115966261, 0.8746486000230738, 0.8743444253887794, 0.8743577656822823, 0.8724272789714418, 0.8723325842480883, 0.8717625431761962, 0.8713696369389742, 0.8709603590784384, 0.8700012925420078, 0.8698293968706059, 0.8689311737932358, 0.8686575425385722, 0.8687158206779211, 0.8685707191992634, 0.8681723522160003, 0.8659326265678106, 0.8657491297694173, 0.8644125823510707, 0.8638629766126401, 0.8638739167810694, 0.8636092236465182, 0.8629238593014458, 0.862735603312968, 0.8626856033834596, 0.8618130641799937, 0.8610627936774029, 0.8609755021307914, 0.8610086060242346, 0.8607662065340123, 0.8604348672568014, 0.859179030512783, 0.8588822879329132, 0.8587410943654082, 0.8577328561202103, 0.857620095921672, 0.8571739022587879, 0.8573618036170874, 0.857475235866624, 0.8574331667733529, 0.8571570951330295, 0.8569864341756858, 0.8566539868588862, 0.8566039328913403, 0.8560734399165301, 0.855765080171478, 0.8557387513892979, 0.8553468388701826, 0.8551150117858074, 0.8551497644832945, 0.8546996187630264, 0.8539100569888356, 0.8537739448517112, 0.8539328466526641, 0.853463434271327, 0.8520840118634487, 0.8521742302027554, 0.8519040701455545, 0.8505175499593945, 0.8495381171324713, 0.8496295860715253, 0.8495440402974975, 0.848280400663623, 0.848077971707311, 0.8478301514835254, 0.8463501508998965, 0.8460798245886331, 0.8459227884173615, 0.8457410729042342, 0.8455677360129906, 0.8454973225366283, 0.8453898379943662, 0.8447260072667938, 0.8438491026747638, 0.8436666774260596, 0.8436227737021756, 0.8435328053754135, 0.8435254012550838, 0.8427640529063741, 0.8427885944731196, 0.8425806560712187, 0.8416451682009494, 0.8415366883908445, 0.8413870556537714, 0.8398704049840776, 0.8390084963227437, 0.8387665244630467, 0.8384915592924375, 0.8370667674619238, 0.8361916390320878, 0.8359435020036394, 0.8357964071542056, 0.8352512930889899, 0.8349734963766161, 0.8348873882946286, 0.8346538718393819, 0.8340619620593194, 0.8333357600431648, 0.8331631139065303, 0.8330726638047973, 0.8328145629994406, 0.832644803031905, 0.8326707371959186, 0.8325011297748842, 0.8316293400842908, 0.8314417724595413, 0.8315832619357623, 0.831254484830146, 0.8310028526944373, 0.830824870573703, 0.8307194651847718, 0.8307240116241332, 0.8299873243605761, 0.8298526637355176, 0.8296001507805109, 0.829626662846646, 0.8288892509067813, 0.8277354593402232, 0.8263521303787129, 0.826442513944378, 0.8254727675887782, 0.8255326640334226, 0.8252867728348735, 0.825085926095336, 0.8247203743101198, 0.8244876050412991, 0.8245761738674721, 0.8245319651735605, 0.823798934469265, 0.8227542452222809, 0.8217619502407078, 0.8210720790037419, 0.8204187022348642, 0.8202556305492058, 0.8203718570707348, 0.8192278339934316, 0.8191432604672156, 0.8185362345960197, 0.8185816842762437, 0.8185172088622106, 0.8180115512293542, 0.8177018698024882, 0.8170486900536233, 0.8166993100138249, 0.8163874037943558, 0.8161551268235954, 0.8159479542124027, 0.8151675365211941, 0.8147982446843915, 0.814460284593517, 0.8143999441933596, 0.8141525233702688, 0.8140657031450199, 0.8138206680109286, 0.8136749514754814, 0.8136666576121646, 0.8130762053947326, 0.8129585023654202, 0.8130283567448886, 0.812845828062296, 0.8125956782478458, 0.8122235195339521, 0.811751750820515, 0.8117533849503502, 0.8113856891380703, 0.8111951491978167, 0.8110177566091765, 0.8106021166341725, 0.8103985018664721, 0.8100715127370504, 0.810097497473416, 0.8097665576111155, 0.8098745200813283, 0.8095270962393771, 0.8093577881757209, 0.809272967111256, 0.80904887120025, 0.8087503615798378, 0.8087511852124257, 0.8085566027670356, 0.808426853798485, 0.8084837303143796, 0.8085150979929849, 0.8083526419149714, 0.8079815476611362, 0.8079157500859412, 0.8077611939227965, 0.8074631983350034, 0.8071098329205397, 0.8071062677784548, 0.8071162179470396, 0.8065864648959329, 0.8063615921128126, 0.8063113579841532, 0.8060406188628461, 0.8060042767505974, 0.8058851133870172, 0.8058115882409619, 0.8052754745871942, 0.8054058258363346, 0.8053739690296324, 0.8052571864566265, 0.8053516822818814, 0.80522297686731, 0.8052021121323638, 0.8049974037507858, 0.8049320829526009, 0.8046369471841965, 0.8046568054696401, 0.8045788955692021, 0.8045896995751701, 0.8041936543578835, 0.8041069277847788, 0.8040646742383402, 0.8038760578456295, 0.80381627225736, 0.803637497015674, 0.8035518637131247, 0.8035773272276303, 0.803542727569882, 0.8032441583397348, 0.8032991142447142, 0.8030504002819203, 0.8030142053109867, 0.8026331327079458, 0.8024150895781337, 0.8025213640410432, 0.8025656658696478, 0.8025309420842917, 0.8023962752281387, 0.8021804051019881, 0.8020014119387912, 0.8013476635475085, 0.8012046522101037, 0.8009461337627943, 0.8007833720388401, 0.8005689007490614, 0.8005366026152151, 0.8000369007043181, 0.799909371252289, 0.7998498291809312, 0.7999132043304509, 0.7997074869632749, 0.7995356588385012, 0.799519596967922, 0.799437371554989, 0.7988842376137469, 0.7987551497393283, 0.7986501177750114, 0.7986342778265572, 0.7984949646459912, 0.7984166934095901, 0.7984085859468785, 0.7983885958921801, 0.7983117840351831, 0.7976508010242832, 0.797666150638853, 0.7975831903944703, 0.7975671659434421, 0.7974683314711897, 0.7972948206659131, 0.7972840112138642, 0.7972391314007058, 0.797063083109594, 0.7959880337943677, 0.7960052227646727, 0.7959056573854125, 0.7958540849233747, 0.7958177059938532, 0.7955344369638091, 0.7954994769704595, 0.795451712156384, 0.7952346778959969, 0.7950596679889295, 0.7949935122243255, 0.7949343223272461, 0.7948911365999313, 0.7947500483022011, 0.794401630947405, 0.79406746678374, 0.7940081625795519, 0.7938826718504534, 0.7938730793372752, 0.7938197631260653, 0.7937548564826454, 0.7938465120795422, 0.7937399596800312, 0.7935927920219984, 0.7936408115445087, 0.7936309751916991, 0.7935882534818613, 0.7933647900053068, 0.7933663112871832, 0.79333105321599, 0.793106625671701, 0.7930835383128657, 0.7928523550117474, 0.7920722469450906, 0.7917206456218732, 0.7916808105054349, 0.7915961554901706, 0.7914936872708594, 0.7914628632583385, 0.7914728488210693, 0.7913725942393321, 0.7912654265698342, 0.7913189638280952, 0.7911999886860583, 0.7912769178675526, 0.7912661200662022, 0.7912252263266976, 0.7912940849222541, 0.7911182163085289, 0.7909677608370268, 0.7908835559382591, 0.7908473965205983, 0.7908210214810834, 0.7907620720250179, 0.7907284867883445, 0.7907647335010632, 0.7906830045012402, 0.7906169409299575, 0.790084086743817, 0.7900768170339126, 0.7898756917992517, 0.7895288745976378, 0.7894049079156457, 0.7892197183175859, 0.7891584787143038, 0.7890632715000728, 0.78899312596043, 0.788843961389557, 0.7887824548632466, 0.7887390567916573, 0.7886690425988948, 0.7886165016283854, 0.7886242421226062, 0.7883380469342538, 0.7880852040870459, 0.7880072161836391, 0.7879377255378888, 0.7879152593064034, 0.7878818165260637, 0.7877550821020087, 0.7876371394330655, 0.7875970501579342, 0.7870983460393893, 0.7870136892388342, 0.7869788522696876, 0.7869359080979155, 0.7868864215205682, 0.7867121646041779, 0.7867949938725581, 0.7867575539675988, 0.7867303343362281, 0.7866639214390837, 0.7866298774441688, 0.7866013125810375, 0.7865597567518744, 0.7865211068728024, 0.7865291965108268, 0.786498362275301, 0.7864376485007201, 0.7863354866020554, 0.7863803305255669, 0.785999535534948, 0.7859912345971053, 0.7859214179659584, 0.7854910615773939, 0.7854404488998961, 0.7847888936215522, 0.7847456258836816, 0.7847076128788716, 0.7846994110729353, 0.7846692490687854, 0.7845040009897979, 0.7842503305239027, 0.7837629628694414, 0.7836938218806642, 0.7836498080418126, 0.7834458493978875, 0.783052169941611, 0.7829281061372976, 0.7822168186792972, 0.7818327203625384, 0.781603915028838, 0.7815514989922322, 0.7813381440939661, 0.7811168198169735, 0.7810760146777104, 0.7810441571117592, 0.7809001253770655, 0.7807259628574352, 0.7804470775096974, 0.7803729652268767, 0.7802463548184475, 0.7802520367422339, 0.780141356448669, 0.7800837840480507, 0.7800631960937224, 0.7800521449412907, 0.7801198051763266, 0.7800801265008244, 0.7800120283688542, 0.7797592890748616, 0.779735113764606, 0.7797231322832331, 0.7797774018717948, 0.779653903272523, 0.7795952227958904, 0.7792894518395627, 0.7792537183618438, 0.7792371047482166, 0.7791997855763844, 0.779181922313784, 0.7791657508797659, 0.7790478149993273, 0.7790311405259288, 0.7789718873463196, 0.7788495552559622, 0.7785711371157031, 0.7784669902073348, 0.7783809708860242, 0.7784347019250977, 0.7784063472805476, 0.7783358183157891, 0.778253777728292, 0.7782895502074919, 0.7782661528071526, 0.7781713235923704, 0.7780901409039045, 0.7780826824610684, 0.7779396046765127, 0.7778835584412913, 0.7777281742159138, 0.7776038433253777, 0.7775956887281721, 0.777518239625848, 0.7775087039523656, 0.777385324120413, 0.7772574956733863, 0.7771659422572263, 0.7771819747673042, 0.7772070003399714, 0.7771233437772805, 0.7771183491684327, 0.7771772308043488, 0.777125511908385, 0.7770760919481082, 0.7770818120088502, 0.777094393232275, 0.7769471089164048, 0.7769458409661988, 0.7768960529472116, 0.776849839715014, 0.77673663338521, 0.7767566102566382, 0.7767648751944407, 0.7765105520367299, 0.7764252552717096, 0.7763807847181154, 0.7763151795985281, 0.7763182308733948, 0.7762154682062908, 0.7762240049189646, 0.7762152383412562, 0.776208933424089, 0.7762067622659493, 0.7760179770902345, 0.7760333699576768, 0.775996880531915, 0.7759629758005658, 0.7757089400479842, 0.775683200947482, 0.7757031440399855, 0.775677239235936, 0.7756710628915533, 0.775569179368816, 0.7754803362943129, 0.775455441036594, 0.7754269655166945, 0.7753434088666921, 0.7753268363454007, 0.7752864034119998, 0.7750898702989477, 0.7750703477218756, 0.7750797032004161, 0.7750824242892207, 0.7750130293071498, 0.7749036044194579, 0.7748944375685501, 0.7748624708074724, 0.7748894285069355, 0.7748391186878456, 0.7748443257313858, 0.7747991057500048, 0.774796445999925, 0.7747972573533777, 0.7747452372248559, 0.7747549011594134, 0.7747377334249123, 0.7746522187762551, 0.7745230329369852, 0.774490157178126, 0.7745134389790361, 0.7745084356913571, 0.7744995174797498, 0.7745396868933799, 0.7745165449695549]}}, \"_estimator_type\": \"regressor\"}"},"feature_names":["C","al","bl","aq","bq"],"feature_types":["float","float","float","float","float"],"gradient_booster":{"model":{"gbtree_model_param":{"num_parallel_tree":"1","num_trees":"727","size_leaf_vector":"0"},"tree_info":[0,0,0,0,0,0,0,0,0,0,0,0,0,0,0,0,0,0,0,0,0,0,0,0,0,0,0,0,0,0,0,0,0,0,0,0,0,0,0,0,0,0,0,0,0,0,0,0,0,0,0,0,0,0,0,0,0,0,0,0,0,0,0,0,0,0,0,0,0,0,0,0,0,0,0,0,0,0,0,0,0,0,0,0,0,0,0,0,0,0,0,0,0,0,0,0,0,0,0,0,0,0,0,0,0,0,0,0,0,0,0,0,0,0,0,0,0,0,0,0,0,0,0,0,0,0,0,0,0,0,0,0,0,0,0,0,0,0,0,0,0,0,0,0,0,0,0,0,0,0,0,0,0,0,0,0,0,0,0,0,0,0,0,0,0,0,0,0,0,0,0,0,0,0,0,0,0,0,0,0,0,0,0,0,0,0,0,0,0,0,0,0,0,0,0,0,0,0,0,0,0,0,0,0,0,0,0,0,0,0,0,0,0,0,0,0,0,0,0,0,0,0,0,0,0,0,0,0,0,0,0,0,0,0,0,0,0,0,0,0,0,0,0,0,0,0,0,0,0,0,0,0,0,0,0,0,0,0,0,0,0,0,0,0,0,0,0,0,0,0,0,0,0,0,0,0,0,0,0,0,0,0,0,0,0,0,0,0,0,0,0,0,0,0,0,0,0,0,0,0,0,0,0,0,0,0,0,0,0,0,0,0,0,0,0,0,0,0,0,0,0,0,0,0,0,0,0,0,0,0,0,0,0,0,0,0,0,0,0,0,0,0,0,0,0,0,0,0,0,0,0,0,0,0,0,0,0,0,0,0,0,0,0,0,0,0,0,0,0,0,0,0,0,0,0,0,0,0,0,0,0,0,0,0,0,0,0,0,0,0,0,0,0,0,0,0,0,0,0,0,0,0,0,0,0,0,0,0,0,0,0,0,0,0,0,0,0,0,0,0,0,0,0,0,0,0,0,0,0,0,0,0,0,0,0,0,0,0,0,0,0,0,0,0,0,0,0,0,0,0,0,0,0,0,0,0,0,0,0,0,0,0,0,0,0,0,0,0,0,0,0,0,0,0,0,0,0,0,0,0,0,0,0,0,0,0,0,0,0,0,0,0,0,0,0,0,0,0,0,0,0,0,0,0,0,0,0,0,0,0,0,0,0,0,0,0,0,0,0,0,0,0,0,0,0,0,0,0,0,0,0,0,0,0,0,0,0,0,0,0,0,0,0,0,0,0,0,0,0,0,0,0,0,0,0,0,0,0,0,0,0,0,0,0,0,0,0,0,0,0,0,0,0,0,0,0,0,0,0,0,0,0,0,0,0,0,0,0,0,0,0,0,0,0,0,0,0,0,0,0,0,0,0,0,0,0,0,0,0,0,0,0,0,0,0,0,0,0,0,0,0,0,0,0,0,0,0,0,0,0,0,0,0,0,0,0,0,0,0,0,0,0,0,0,0,0,0,0,0,0,0,0,0,0,0,0,0,0,0,0,0,0,0,0,0,0,0,0,0,0,0,0,0,0,0,0,0,0,0,0,0,0,0,0,0,0,0,0,0,0,0,0,0,0,0,0,0,0,0,0,0,0,0,0,0,0,0,0,0,0,0,0,0,0,0,0,0,0,0,0,0,0,0,0,0,0,0],"trees":[{"base_weights":[1.7707052E1,1.8217855E1,1.3287825E1,1.8503193E1,1.3096701E1,1.437856E1,1.1111962E1,1.330797E1,1.877757E1,1.3952393E1,1.126452E1,1.5169542E1,1.2498509E1,1.1650148E1,1.4543088E1,1.9064445E1,1.3367008E1,1.5499818E1,1.1256938E1,1.59131975E1,1.944459E1,1.4691561E1,1.1631029E1,1.1888042E1,1.5806892E1,1.48578825E1,1.6979965E1,1.5279472E1,1.9790932E1],"categories":[],"categories_nodes":[],"categories_segments":[],"categories_sizes":[],"default_left":[1,1,1,1,1,1,0,1,1,0,0,1,0,0,0,1,1,1,0,1,1,0,0,0,0,0,0,0,0],"id":0,"left_children":[1,3,5,7,9,11,-1,13,15,-1,-1,17,-1,-1,-1,19,21,23,-1,25,27,-1,-1,-1,-1,-1,-1,-1,-1],"loss_changes":[9.764875E3,5.56025E3,9.390547E2,5.108375E3,1.7676953E2,2.6396484E2,0E0,2.2371094E2,5.283375E3,0E0,0E0,9.689453E1,0E0,0E0,0E0,3.74675E3,2.4991016E2,2.3921875E1,0E0,1.6425E2,4.04975E3,0E0,0E0,0E0,0E0,0E0,0E0,0E0,0E0],"parents":[2147483647,0,0,1,1,2,2,3,3,4,4,5,5,7,7,8,8,11,11,15,15,16,16,17,17,19,19,20,20],"right_children":[2,4,6,8,10,12,-1,14,16,-1,-1,18,-1,-1,-1,20,22,24,-1,26,28,-1,-1,-1,-1,-1,-1,-1,-1],"split_conditions":[-9.018546E-2,5.027329E-2,-5.617582E-2,-6.73583E-2,6.8653494E-2,2.1023216E0,5.5559814E-1,-7.623706E-2,6.66537E-2,6.976196E-1,5.63226E-1,7.111362E-2,6.249255E-1,5.8250743E-1,7.2715443E-1,-1.473878E-1,7.5046584E-2,4.506607E-1,5.628469E-1,-1.8752727E-1,-1.06094435E-1,7.345781E-1,5.815515E-1,5.9440213E-1,7.9034466E-1,7.428941E-1,8.4899825E-1,7.6397365E-1,9.895466E-1],"split_indices":[0,3,0,1,3,4,0,1,1,0,0,3,0,0,0,0,1,4,0,0,3,0,0,0,0,0,0,0,0],"split_type":[0,0,0,0,0,0,0,0,0,0,0,0,0,0,0,0,0,0,0,0,0,0,0,0,0,0,0,0,0],"sum_hessian":[4.432E3,3.97E3,4.62E2,3.758E3,2.12E2,3.04E2,1.58E2,1.91E2,3.567E3,1.4E2,7.2E1,2.09E2,9.5E1,8.6E1,1.05E2,3.385E3,1.82E2,1.9E2,1.9E1,3.69E2,3.016E3,9.9E1,8.3E1,1.8E1,1.72E2,1.93E2,1.76E2,2.35E2,2.781E3],"tree_param":{"num_deleted":"0","num_feature":"5","num_nodes":"29","size_leaf_vector":"0"}},{"base_weights":[1.6824038E1,1.7292871E1,1.248637E1,1.7565805E1,1.2456345E1,1.3712662E1,1.0811202E1,1.2657694E1,1.7827654E1,1.3634769E1,1.1251115E1,1.4616276E1,1.2129686E1,1.1069401E1,1.3834658E1,1.8101736E1,1.26881895E1,1.4963957E1,1.0420014E1,1.5395615E1,1.849826E1,1.3943405E1,1.1047425E1,1.036932E1,1.5239747E1,1.4180991E1,1.6400003E1,1.4531084E1,1.8829832E1],"categories":[],"categories_nodes":[],"categories_segments":[],"categories_sizes":[],"default_left":[1,1,1,1,1,1,0,1,1,0,0,1,0,0,0,1,1,1,0,1,1,0,0,0,0,0,0,0,0],"id":1,"left_children":[1,3,5,7,9,11,-1,13,15,-1,-1,17,-1,-1,-1,19,21,23,-1,25,27,-1,-1,-1,-1,-1,-1,-1,-1],"loss_changes":[8.79925E3,5.058625E3,7.4740625E2,4.635E3,1.5478906E2,1.7744531E2,0E0,2.1138281E2,4.8245E3,0E0,0E0,6.729492E1,0E0,0E0,0E0,3.36775E3,2.269707E2,1.8111328E1,0E0,3.054375E2,3.6253125E3,0E0,0E0,0E0,0E0,0E0,0E0,0E0,0E0],"parents":[2147483647,0,0,1,1,2,2,3,3,4,4,5,5,7,7,8,8,11,11,15,15,16,16,17,17,19,19,20,20],"right_children":[2,4,6,8,10,12,-1,14,16,-1,-1,18,-1,-1,-1,20,22,24,-1,26,28,-1,-1,-1,-1,-1,-1,-1,-1],"split_conditions":[-8.688985E-2,5.027329E-2,-6.003915E-2,-6.656427E-2,6.366588E-2,1.9508656E0,5.405601E-1,-7.623706E-2,6.66537E-2,6.817385E-1,5.6255573E-1,7.2364375E-2,6.0648435E-1,5.534701E-1,6.917329E-1,-1.344535E-1,7.5046584E-2,3.591511E-1,5.2100074E-1,-1.8529883E-1,-1.06094435E-1,6.9717026E-1,5.5237126E-1,5.18466E-1,7.619874E-1,7.090496E-1,8.200002E-1,7.265542E-1,9.414916E-1],"split_indices":[0,3,0,1,3,4,0,1,1,0,0,3,0,0,0,0,1,4,0,0,3,0,0,0,0,0,0,0,0],"split_type":[0,0,0,0,0,0,0,0,0,0,0,0,0,0,0,0,0,0,0,0,0,0,0,0,0,0,0,0,0],"sum_hessian":[4.432E3,3.997E3,4.35E2,3.781E3,2.16E2,2.47E2,1.88E2,1.94E2,3.587E3,1.04E2,1.12E2,1.52E2,9.5E1,8.7E1,1.07E2,3.403E3,1.84E2,1.38E2,1.4E1,4.4E2,2.963E3,1E2,8.4E1,1E1,1.28E2,2.06E2,2.34E2,2.32E2,2.731E3],"tree_param":{"num_deleted":"0","num_feature":"5","num_nodes":"29","size_leaf_vector":"0"}},{"base_weights":[1.5985065E1,1.644552E1,1.2001362E1,1.6702665E1,1.1830237E1,1.3145232E1,1.0273502E1,1.2023192E1,1.6949795E1,1.2614092E1,1.015416E1,1.3945696E1,1.1455555E1,1.0668036E1,8.963334E0,9.652941E0,1.2703868E1,1.7242098E1,1.2612496E1,1.4326899E1,1.0522089E1,1.4640467E1,1.7627659E1,1.3735416E1,1.0510606E1,9.767586E0,1.4532598E1,1.3491458E1,1.5597601E1,1.4133789E1,1.7986286E1],"categories":[],"categories_nodes":[],"categories_segments":[],"categories_sizes":[],"default_left":[1,1,1,1,1,1,1,1,1,0,0,1,0,0,0,0,0,1,1,1,0,1,1,0,0,0,0,0,0,0,0],"id":2,"left_children":[1,3,5,7,9,11,13,15,17,-1,-1,19,-1,-1,-1,-1,-1,21,23,25,-1,27,29,-1,-1,-1,-1,-1,-1,-1,-1],"loss_changes":[7.934125E3,4.515125E3,7.800547E2,4.14325E3,1.5175195E2,2.121875E2,2.0761719E0,1.8713867E2,4.3060625E3,0E0,0E0,8.677734E1,0E0,0E0,0E0,0E0,0E0,3.09225E3,3.961289E2,9.042969E0,0E0,2.7016406E2,3.3844375E3,0E0,0E0,0E0,0E0,0E0,0E0,0E0,0E0],"parents":[2147483647,0,0,1,1,2,2,3,3,4,4,5,5,6,6,7,7,8,8,11,11,17,17,18,18,19,19,21,21,22,22],"right_children":[2,4,6,8,10,12,14,16,18,-1,-1,20,-1,-1,-1,-1,-1,22,24,26,-1,28,30,-1,-1,-1,-1,-1,-1,-1,-1],"split_conditions":[-9.018546E-2,5.027329E-2,-6.003915E-2,-6.73583E-2,6.8653494E-2,2.060922E0,-4.346941E-2,-7.67954E-2,6.38341E-2,6.307046E-1,5.07708E-1,6.5541565E-2,5.7277775E-1,5.3340185E-1,4.481667E-1,4.8264703E-1,6.351934E-1,-1.344535E-1,7.5046584E-2,3.591511E-1,5.2610445E-1,-1.8529883E-1,-1.0390423E-1,6.8677086E-1,5.255303E-1,4.883793E-1,7.266299E-1,6.745729E-1,7.7988005E-1,7.066895E-1,8.9931434E-1],"split_indices":[0,3,0,1,3,4,0,1,1,0,0,3,0,0,0,0,0,0,1,4,0,0,3,0,0,0,0,0,0,0,0],"split_type":[0,0,0,0,0,0,0,0,0,0,0,0,0,0,0,0,0,0,0,0,0,0,0,0,0,0,0,0,0,0,0],"sum_hessian":[4.432E3,3.97E3,4.62E2,3.758E3,2.12E2,2.74E2,1.88E2,1.91E2,3.567E3,1.4E2,7.2E1,1.81E2,9.3E1,1.39E2,4.9E1,4.6E1,1.45E2,3.339E3,2.28E2,1.6E2,2.1E1,4.36E2,2.903E3,1.45E2,8.3E1,9E0,1.51E2,2.05E2,2.31E2,2.74E2,2.629E3],"tree_param":{"num_deleted":"0","num_feature":"5","num_nodes":"31","size_leaf_vector":"0"}},{"base_weights":[1.5188027E1,1.5671619E1,1.1759598E1,1.5944246E1,1.1747845E1,1.28686695E1,9.947753E0,1.1898974E1,1.6222271E1,1.2782035E1,1.0113432E1,1.3663287E1,1.1180492E1,1.0474698E1,8.874167E0,9.95809E0,1.2958301E1,1.6508543E1,1.2000519E1,9.452812E0,1.3982209E1,1.0865442E1,8.465878E0,9.132268E0,1.3224823E1,1.3686248E1,1.6864868E1,1.3076497E1,9.967552E0,1.418557E1,1.0150953E1,1.2600214E1,1.447872E1,1.3452763E1,1.7223337E1,3.6882265E0,1.4220669E1],"categories":[],"categories_nodes":[],"categories_segments":[],"categories_sizes":[],"default_left":[1,1,1,1,1,1,1,1,1,0,0,1,0,1,0,0,1,1,1,0,1,0,0,0,0,1,1,0,0,1,0,0,0,0,0,0,0],"id":3,"left_children":[1,3,5,7,9,11,13,15,17,-1,-1,19,-1,21,-1,-1,23,25,27,-1,29,-1,-1,-1,-1,31,33,-1,-1,35,-1,-1,-1,-1,-1,-1,-1],"loss_changes":[7.1655625E3,3.9653125E3,9.8121875E2,3.88625E3,3.034453E2,3.0198828E2,2.8109375E1,3.5823828E2,3.90025E3,0E0,0E0,1.713086E2,0E0,1.6335938E1,0E0,0E0,3.2185547E1,2.9600625E3,3.4870508E2,0E0,1.8058594E1,0E0,0E0,0E0,0E0,1.2825781E2,3.2089375E3,0E0,0E0,1.9398438E1,0E0,0E0,0E0,0E0,0E0,0E0,0E0],"parents":[2147483647,0,0,1,1,2,2,3,3,4,4,5,5,6,6,7,7,8,8,11,11,13,13,16,16,17,17,18,18,20,20,25,25,26,26,29,29],"right_children":[2,4,6,8,10,12,14,16,18,-1,-1,20,-1,22,-1,-1,24,26,28,-1,30,-1,-1,-1,-1,32,34,-1,-1,36,-1,-1,-1,-1,-1,-1,-1],"split_conditions":[-1.00377336E-1,4.4157855E-2,-6.347443E-2,-6.32844E-2,6.264154E-2,2.1254392E0,-4.686909E-2,-7.338547E-2,6.38341E-2,6.3910174E-1,5.056716E-1,3.7697613E-1,5.5902463E-1,2.1550767E0,4.437084E-1,4.979045E-1,-1.3418466E-1,-1.473878E-1,7.5256415E-2,4.726406E-1,6.59523E-2,5.4327214E-1,4.232939E-1,4.566134E-1,6.612412E-1,-1.9582656E-1,-1.0078054E-1,6.5382487E-1,4.9837762E-1,-1.00122735E-1,5.075477E-1,6.300107E-1,7.23936E-1,6.726381E-1,8.611669E-1,1.8441133E-1,7.1103346E-1],"split_indices":[0,3,0,1,3,4,0,1,1,0,0,4,0,4,0,0,0,0,1,0,3,0,0,0,0,0,3,0,0,0,0,0,0,0,0,0,0],"split_type":[0,0,0,0,0,0,0,0,0,0,0,0,0,0,0,0,0,0,0,0,0,0,0,0,0,0,0,0,0,0,0,0,0,0,0,0,0],"sum_hessian":[4.432E3,3.881E3,5.51E2,3.626E3,2.55E2,3.38E2,2.13E2,2.36E2,3.39E3,1.52E2,1.03E2,2.25E2,1.13E2,1.37E2,7.6E1,8.7E1,1.49E2,3.172E3,2.18E2,1.8E1,2.07E2,1.11E2,2.6E1,1.2E1,1.37E2,3.6E2,2.812E3,1.39E2,7.9E1,1.94E2,1.3E1,1.59E2,2.01E2,2.71E2,2.541E3,1E0,1.93E2],"tree_param":{"num_deleted":"0","num_feature":"5","num_nodes":"37","size_leaf_vector":"0"}},{"base_weights":[1.4431028E1,1.4832588E1,1.07157345E1,1.5066696E1,1.0684065E1,1.1635478E1,9.040236E0,1.1356675E1,1.5322713E1,1.138826E1,9.198946E0,1.2398236E1,1.028083E1,9.476909E0,1.2313586E1,1.5563952E1,1.0870186E1,6.98841E0,1.1529943E1,1.2678268E1,9.08275E0,8.895921E0,1.26037855E1,1.2301315E1,1.5816216E1,1.1483972E1,8.576198E0,9.6794E0,1.2996975E1,7.5506372E0,1.2450491E1,1.2983813E1,1.6166462E1],"categories":[],"categories_nodes":[],"categories_segments":[],"categories_sizes":[],"default_left":[1,1,1,1,1,1,0,1,1,1,0,1,0,0,1,1,1,0,0,1,0,0,0,1,1,0,0,0,0,0,0,0,0],"id":4,"left_children":[1,3,5,7,9,11,-1,13,15,17,-1,19,-1,-1,21,23,25,-1,-1,27,-1,-1,-1,29,31,-1,-1,-1,-1,-1,-1,-1,-1],"loss_changes":[6.454625E3,3.7219375E3,5.667031E2,3.41825E3,1.2218359E2,1.5978516E2,0E0,3.294004E2,3.62775E3,8.566406E0,0E0,4.5464844E1,0E0,0E0,4.7558594E1,2.5635E3,1.619961E2,0E0,0E0,2.425E1,0E0,0E0,0E0,7.961719E1,2.872375E3,0E0,0E0,0E0,0E0,0E0,0E0,0E0,0E0],"parents":[2147483647,0,0,1,1,2,2,3,3,4,4,5,5,7,7,8,8,9,9,11,11,14,14,15,15,16,16,19,19,23,23,24,24],"right_children":[2,4,6,8,10,12,-1,14,16,18,-1,20,-1,-1,22,24,26,-1,-1,28,-1,-1,-1,30,32,-1,-1,-1,-1,-1,-1,-1,-1],"split_conditions":[-8.688985E-2,5.027329E-2,-5.617582E-2,-6.326069E-2,6.8653494E-2,1.9508656E0,4.5201182E-1,-7.623706E-2,6.66537E-2,-1.7911774E-1,4.5994732E-1,7.2364375E-2,5.1404154E-1,4.7384545E-1,-1.3418466E-1,-1.0935229E-1,7.769268E-2,3.4942052E-1,5.764972E-1,4.506607E-1,4.5413753E-1,4.4479606E-1,6.301893E-1,1.299854E-1,-1.5033047E-1,5.741986E-1,4.2880988E-1,4.8397002E-1,6.4984876E-1,3.7753186E-1,6.2252456E-1,6.4919066E-1,8.083231E-1],"split_indices":[0,3,0,1,3,4,0,1,1,0,0,3,0,0,0,3,1,0,0,4,0,0,0,4,0,0,0,0,0,0,0,0,0],"split_type":[0,0,0,0,0,0,0,0,0,0,0,0,0,0,0,0,0,0,0,0,0,0,0,0,0,0,0,0,0,0,0,0,0],"sum_hessian":[4.432E3,3.997E3,4.35E2,3.781E3,2.16E2,2.77E2,1.58E2,2.47E2,3.534E3,1.42E2,7.4E1,1.72E2,1.05E2,8.7E1,1.6E2,3.35E3,1.84E2,6E0,1.36E2,1.56E2,1.6E1,1.5E1,1.45E2,2.44E2,3.106E3,1.42E2,4.2E1,1.8E1,1.38E2,9E0,2.35E2,3.46E2,2.76E3],"tree_param":{"num_deleted":"0","num_feature":"5","num_nodes":"33","size_leaf_vector":"0"}},{"base_weights":[1.3711495E1,1.4148948E1,1.0610225E1,1.4396564E1,1.0585474E1,1.1610823E1,8.975585E0,1.023814E1,1.4617095E1,1.1513189E1,9.118879E0,1.2339763E1,1.0063882E1,9.323994E0,7.6463246E0,8.077508E0,1.0850748E1,1.487082E1,1.0815147E1,6.375341E0,1.1608331E1,8.502575E0,1.2630949E1,9.60443E0,7.6088433E0,9.239661E0,1.5014841E1,1.1785936E1,8.981077E0,3.2847586E0,1.2660232E1,1.1299293E1,7.9243164E0,1.5493871E1,1.325109E1,4.8995914E0,1.1850234E1,1.2890266E1,9.705666E0],"categories":[],"categories_nodes":[],"categories_segments":[],"categories_sizes":[],"default_left":[1,1,1,1,1,1,1,1,1,1,0,1,0,1,0,0,0,1,1,0,0,0,1,0,0,1,1,1,0,0,1,0,0,0,0,0,0,0,0],"id":5,"left_children":[1,3,5,7,9,11,13,15,17,19,-1,21,-1,23,-1,-1,-1,25,27,-1,-1,-1,29,-1,-1,31,33,35,-1,-1,37,-1,-1,-1,-1,-1,-1,-1,-1],"loss_changes":[5.863875E3,3.273E3,7.9864453E2,3.1765625E3,2.4332227E2,2.5808203E2,2.7816406E1,1.5854688E2,3.1595E3,7.8125E-1,0E0,1.45125E2,0E0,6.2841797E0,0E0,0E0,0E0,2.4759375E3,2.8407812E2,0E0,0E0,0E0,1.53359375E1,0E0,0E0,1.3531787E2,2.449375E3,3.9277344E0,0E0,0E0,1.5582031E1,0E0,0E0,0E0,0E0,0E0,0E0,0E0,0E0],"parents":[2147483647,0,0,1,1,2,2,3,3,4,4,5,5,6,6,7,7,8,8,9,9,11,11,13,13,17,17,18,18,22,22,25,25,26,26,27,27,30,30],"right_children":[2,4,6,8,10,12,14,16,18,20,-1,22,-1,24,-1,-1,-1,26,28,-1,-1,-1,30,-1,-1,32,34,36,-1,-1,38,-1,-1,-1,-1,-1,-1,-1,-1],"split_conditions":[-1.00377336E-1,4.4157855E-2,-6.347443E-2,-6.73583E-2,6.264154E-2,2.1254392E0,-4.346941E-2,-7.67954E-2,6.38341E-2,-5.6715827E-2,4.5594397E-1,3.7697613E-1,5.031941E-1,2.153835E0,3.8231623E-1,4.038754E-1,5.425374E-1,1.9602233E-1,7.5256415E-2,3.1876704E-1,5.8041656E-1,4.2512876E-1,-1.00122735E-1,4.802215E-1,3.8044217E-1,-1.6882467E-1,1.9450095E0,-2.3173389E-1,4.4905385E-1,1.6423793E-1,5.803196E-2,5.6496465E-1,3.9621583E-1,7.7469355E-1,6.625545E-1,2.4497958E-1,5.925117E-1,6.445133E-1,4.852833E-1],"split_indices":[0,3,0,1,3,4,0,1,1,1,0,4,0,4,0,0,0,4,1,0,0,0,0,0,0,0,4,0,0,0,3,0,0,0,0,0,0,0,0],"split_type":[0,0,0,0,0,0,0,0,0,0,0,0,0,0,0,0,0,0,0,0,0,0,0,0,0,0,0,0,0,0,0,0,0,0,0,0,0,0,0],"sum_hessian":[4.432E3,3.881E3,5.51E2,3.626E3,2.55E2,3.38E2,2.13E2,1.85E2,3.441E3,1.52E2,1.03E2,2.25E2,1.13E2,1.64E2,4.9E1,4.4E1,1.41E2,3.223E3,2.18E2,4E0,1.48E2,1.8E1,2.07E2,1.37E2,2.7E1,8.2E1,3.141E3,1.39E2,7.9E1,1E0,2.06E2,2.9E1,5.3E1,2.464E3,6.77E2,2E0,1.37E2,1.88E2,1.8E1],"tree_param":{"num_deleted":"0","num_feature":"5","num_nodes":"39","size_leaf_vector":"0"}},{"base_weights":[1.3028052E1,1.3443042E1,1.0085992E1,1.3678011E1,1.0061494E1,1.0948872E1,8.370784E0,1.0186161E1,1.3918026E1,1.0943406E1,8.667319E0,1.1672631E1,9.693342E0,8.703538E0,7.2716546E0,8.529225E0,1.10903225E1,1.4164718E1,1.0280265E1,8.099821E0,1.1942875E1,7.763072E0,1.1323395E1,1.1650092E1,1.4482391E1,1.1202621E1,8.537637E0,1.2170412E1,8.4517765E0,1.06403055E1,1.239225E1,1.1446647E1,1.4802846E1,3.0860252E0,1.1238812E1,3.2026396E0,1.2200439E1],"categories":[],"categories_nodes":[],"categories_segments":[],"categories_sizes":[],"default_left":[1,1,1,1,1,1,1,1,1,0,0,1,0,0,0,0,1,1,1,0,1,0,0,1,1,1,0,1,0,0,0,0,0,0,0,0,0],"id":6,"left_children":[1,3,5,7,9,11,13,15,17,-1,-1,19,-1,-1,-1,-1,21,23,25,-1,27,-1,-1,29,31,33,-1,35,-1,-1,-1,-1,-1,-1,-1,-1,-1],"loss_changes":[5.2768125E3,2.9468125E3,7.253242E2,2.8980625E3,2.1991211E2,2.1761719E2,5.8359375E0,2.604668E2,2.8974375E3,0E0,0E0,1.2147656E2,0E0,0E0,0E0,0E0,2.8419922E1,2.366E3,2.5635938E2,0E0,6.236328E1,0E0,0E0,1.386836E2,2.5670625E3,6.4414062E0,0E0,1.2894531E1,0E0,0E0,0E0,0E0,0E0,0E0,0E0,0E0,0E0],"parents":[2147483647,0,0,1,1,2,2,3,3,4,4,5,5,6,6,7,7,8,8,11,11,16,16,17,17,18,18,20,20,23,23,24,24,25,25,27,27],"right_children":[2,4,6,8,10,12,14,16,18,-1,-1,20,-1,-1,-1,-1,22,24,26,-1,28,-1,-1,30,32,34,-1,36,-1,-1,-1,-1,-1,-1,-1,-1,-1],"split_conditions":[-1.00377336E-1,4.4157855E-2,-6.003915E-2,-6.32844E-2,6.264154E-2,1.9508656E0,-4.346941E-2,-7.338547E-2,6.38341E-2,5.4717034E-1,4.3336597E-1,3.7697613E-1,4.8466712E-1,4.351769E-1,3.6358273E-1,4.2646128E-1,-1.3418466E-1,-1.473878E-1,7.5256415E-2,4.0499106E-1,6.90473E-2,3.881536E-1,5.6616974E-1,-1.9582656E-1,-9.99205E-2,-8.2219794E-2,4.2688185E-1,-1.00122735E-1,4.2258883E-1,5.3201526E-1,6.196125E-1,5.723323E-1,7.401423E-1,1.5430127E-1,5.619406E-1,1.6013198E-1,6.10022E-1],"split_indices":[0,3,0,1,3,4,0,1,1,0,0,4,0,0,0,0,0,0,1,0,3,0,0,0,3,3,0,0,0,0,0,0,0,0,0,0,0],"split_type":[0,0,0,0,0,0,0,0,0,0,0,0,0,0,0,0,0,0,0,0,0,0,0,0,0,0,0,0,0,0,0,0,0,0,0,0,0],"sum_hessian":[4.432E3,3.881E3,5.51E2,3.626E3,2.55E2,3.63E2,1.88E2,2.36E2,3.39E3,1.52E2,1.03E2,2.25E2,1.38E2,1.39E2,4.9E1,8.7E1,1.49E2,3.172E3,2.18E2,1.8E1,2.07E2,1.2E1,1.37E2,3.6E2,2.812E3,1.39E2,7.9E1,1.92E2,1.5E1,1.59E2,2.01E2,2.72E2,2.54E3,1E0,1.38E2,1E0,1.91E2],"tree_param":{"num_deleted":"0","num_feature":"5","num_nodes":"37","size_leaf_vector":"0"}},{"base_weights":[1.2378647E1,1.2706597E1,9.0218935E0,1.2969919E1,9.887574E0,9.829857E0,7.745585E0,1.0008742E1,1.3222531E1,1.1000149E1,8.678703E0,1.0617828E1,8.785434E0,8.1130085E0,1.0753551E1,1.3500098E1,1.004941E1,6.4919786E0,1.11467285E1,9.092738E0,7.0335903E0,8.057615E0,1.0951391E1,1.0920276E1,7.412647E0,1.0815076E1,1.3788332E1,1.1211515E1,8.649095E0,8.882351E0,1.1438609E1,1.0992336E1,3.1623106E0,9.599839E0,1.1342536E1,9.5302925E0,1.1504128E1,1.105568E1,1.4101669E1,9.191606E0,7.198654E0,9.046114E0,2.5578952E0],"categories":[],"categories_nodes":[],"categories_segments":[],"categories_sizes":[],"default_left":[1,1,1,1,1,1,0,1,1,1,1,1,0,0,1,1,1,0,1,0,0,0,1,1,0,1,1,0,1,1,0,0,0,0,0,0,0,0,0,0,0,0,0],"id":7,"left_children":[1,3,5,7,9,11,-1,13,15,17,19,21,-1,-1,23,25,27,-1,29,-1,-1,-1,31,33,-1,35,37,-1,39,41,-1,-1,-1,-1,-1,-1,-1,-1,-1,-1,-1,-1,-1],"loss_changes":[4.7655E3,2.8676875E3,3.3428516E2,2.6264375E3,3.7392578E2,1.0423242E2,0E0,3.278711E2,2.8545E3,4.5257812E1,5.3200195E1,2.4484375E1,0E0,0E0,3.4910156E1,2.2646875E3,3.5379883E2,0E0,1.1416016E1,0E0,0E0,0E0,1.5957031E0,3.9648438E-1,0E0,1.6214453E2,2.2526875E3,0E0,3.6126953E1,1.7181396E0,0E0,0E0,0E0,0E0,0E0,0E0,0E0,0E0,0E0,0E0,0E0,0E0,0E0],"parents":[2147483647,0,0,1,1,2,2,3,3,4,4,5,5,7,7,8,8,9,9,10,10,11,11,14,14,15,15,16,16,18,18,22,22,23,23,25,25,26,26,28,28,29,29],"right_children":[2,4,6,8,10,12,-1,14,16,18,20,22,-1,-1,24,26,28,-1,30,-1,-1,-1,32,34,-1,36,38,-1,40,42,-1,-1,-1,-1,-1,-1,-1,-1,-1,-1,-1,-1,-1],"split_conditions":[-8.323887E-2,3.7590902E-2,-5.617582E-2,-5.9941225E-2,5.7065774E-2,1.6819644E0,3.8727924E-1,-7.623706E-2,6.0059078E-2,1.9443178E-1,8.068459E-2,4.506607E-1,4.392717E-1,4.0565044E-1,1.8332375E0,-1.0126905E-1,7.250784E-2,3.2459894E-1,-1.4142525E-1,4.546369E-1,3.5167953E-1,4.0288076E-1,9.861581E-2,-7.031502E-2,3.7063235E-1,-1.2622969E-1,-1.563268E-1,5.605758E-1,7.963701E-2,1.7895088E-2,5.7193047E-1,5.496168E-1,1.5811554E-1,4.7999197E-1,5.671268E-1,4.7651464E-1,5.7520646E-1,5.52784E-1,7.050835E-1,4.5958027E-1,3.5993272E-1,4.523057E-1,1.2789476E-1],"split_indices":[0,3,0,1,3,4,0,1,1,4,3,4,0,0,4,3,1,0,0,0,0,0,3,1,0,3,0,0,1,2,0,0,0,0,0,0,0,0,0,0,0,0,0],"split_type":[0,0,0,0,0,0,0,0,0,0,0,0,0,0,0,0,0,0,0,0,0,0,0,0,0,0,0,0,0,0,0,0,0,0,0,0,0,0,0,0,0,0,0],"sum_hessian":[4.432E3,4.035E3,3.97E2,3.687E3,3.48E2,2.39E2,1.58E2,2.93E2,3.394E3,1.77E2,1.71E2,1.31E2,1.08E2,8.6E1,2.07E2,3.118E3,2.76E2,7E0,1.7E2,1.33E2,3.8E1,1.8E1,1.13E2,1.95E2,1.2E1,3.06E2,2.812E3,1.47E2,1.29E2,2.3E1,1.47E2,1.12E2,1E0,5.3E1,1.42E2,1.12E2,1.94E2,2.93E2,2.519E3,9E1,3.9E1,2.2E1,1E0],"tree_param":{"num_deleted":"0","num_feature":"5","num_nodes":"43","size_leaf_vector":"0"}},{"base_weights":[1.176191E1,1.2137914E1,9.096317E0,1.2379682E1,9.4265E0,1.0137517E1,7.922064E0,9.48587E0,1.2625662E1,1.0434219E1,8.245201E0,1.070533E1,8.435159E0,8.562078E0,7.1531425E0,8.206028E0,1.0534905E1,1.2886562E1,9.584739E0,6.207955E0,1.0577629E1,8.651551E0,6.737414E0,7.2736597E0,1.0947122E1,9.168337E0,7.3714466E0,6.8497744E0,8.784333E0,1.0733264E1,6.64489E0,7.5231714E0,1.3024473E1,1.069511E1,8.253798E0,6.446259E0,1.0694457E1,2.8349705E0,1.0974046E1,9.808966E0,6.259892E0,1.3421531E1,1.1040946E1,8.808099E0,6.8695607E0,1.1111068E1,7.659491E0],"categories":[],"categories_nodes":[],"categories_segments":[],"categories_sizes":[],"default_left":[1,1,1,1,1,1,1,1,1,1,1,1,0,1,0,1,1,1,1,0,1,0,0,0,1,0,0,0,0,0,0,1,1,0,1,0,0,0,1,0,0,0,0,0,0,0,0],"id":8,"left_children":[1,3,5,7,9,11,13,15,17,19,21,23,-1,25,-1,27,29,31,33,-1,35,-1,-1,-1,37,-1,-1,-1,-1,-1,-1,39,41,-1,43,-1,-1,-1,45,-1,-1,-1,-1,-1,-1,-1,-1],"loss_changes":[4.33275E3,2.428E3,5.9458984E2,2.4150625E3,2.972793E2,1.8905078E2,6.8671875E1,2.935039E2,2.4779688E3,3.7373047E1,3.545215E1,9.7109375E1,0E0,3.275E1,0E0,4.336133E1,4.5964844E1,2.1335938E3,3.0039648E2,0E0,9.732422E0,0E0,0E0,0E0,1.1917969E1,0E0,0E0,0E0,0E0,0E0,0E0,1.6382959E2,2.1672812E3,0E0,3.4635742E1,0E0,0E0,0E0,3.9121094E0,0E0,0E0,0E0,0E0,0E0,0E0,0E0,0E0],"parents":[2147483647,0,0,1,1,2,2,3,3,4,4,5,5,6,6,7,7,8,8,9,9,10,10,11,11,13,13,15,15,16,16,17,17,18,18,20,20,24,24,31,31,32,32,34,34,38,38],"right_children":[2,4,6,8,10,12,14,16,18,20,22,24,-1,26,-1,28,30,32,34,-1,36,-1,-1,-1,38,-1,-1,-1,-1,-1,-1,40,42,-1,44,-1,-1,-1,46,-1,-1,-1,-1,-1,-1,-1,-1],"split_conditions":[-1.00377336E-1,3.7590902E-2,-6.8780124E-2,-5.9941225E-2,5.7065774E-2,2.3065743E0,-5.282974E-2,-7.139431E-2,6.0059078E-2,1.9443178E-1,7.595897E-2,3.7697613E-1,4.2175794E-1,1.8731415E0,3.5765713E-1,-7.67954E-2,1.8332375E0,1.9602233E-1,7.082746E-2,3.1039774E-1,-5.560086E-2,4.3257758E-1,3.368707E-1,3.63683E-1,-1.00122735E-1,4.5841685E-1,3.6857232E-1,3.4248874E-1,4.3921667E-1,5.3666323E-1,3.322445E-1,-1.7335355E-1,2.1928697E0,5.347555E-1,7.8307435E-2,3.2231295E-1,5.3472286E-1,1.4174853E-1,6.90473E-2,4.904483E-1,3.129946E-1,6.7107654E-1,5.520473E-1,4.4040495E-1,3.4347805E-1,5.555534E-1,3.8297457E-1],"split_indices":[0,3,0,1,3,4,0,1,1,4,3,4,0,4,0,1,4,4,1,0,1,0,0,0,0,0,0,0,0,0,0,0,4,0,1,0,0,0,3,0,0,0,0,0,0,0,0],"split_type":[0,0,0,0,0,0,0,0,0,0,0,0,0,0,0,0,0,0,0,0,0,0,0,0,0,0,0,0,0,0,0,0,0,0,0,0,0,0,0,0,0,0,0,0,0,0,0],"sum_hessian":[4.432E3,3.881E3,5.51E2,3.56E3,3.21E2,2.88E2,2.63E2,2.82E2,3.278E3,1.69E2,1.52E2,2.12E2,7.6E1,1.38E2,1.25E2,1.31E2,1.51E2,3.016E3,2.62E2,7E0,1.62E2,1.16E2,3.6E1,1.6E1,1.96E2,8.7E1,5.1E1,4.3E1,8.8E1,1.42E2,9E0,7.7E1,2.939E3,1.39E2,1.23E2,6E0,1.56E2,1E0,1.95E2,2.5E1,5.2E1,2.444E3,4.95E2,8.4E1,3.9E1,1.85E2,1E1],"tree_param":{"num_deleted":"0","num_feature":"5","num_nodes":"47","size_leaf_vector":"0"}},{"base_weights":[1.1176066E1,1.1532804E1,8.647028E0,1.17621E1,8.96119E0,9.637097E0,7.530448E0,9.01741E0,1.19953985E1,9.649675E0,7.4252353E0,1.0272922E1,8.23054E0,8.139924E0,6.798324E0,7.3188133E0,9.721778E0,1.2242906E1,9.110516E0,6.3443904E0,9.761119E0,6.9313703E0,1.0532885E1,2.3265452E0,8.268599E0,8.403555E0,5.900874E0,9.919922E0,7.040253E0,9.642719E0,1.2509576E1,9.838644E0,7.32194E0,6.3553486E0,9.864539E0,2.7640963E0,1.0561001E1,8.551735E0,5.592879E0,8.360809E0,1.0322258E1,9.893636E0,1.2819649E1,1.073625E1,7.741206E0],"categories":[],"categories_nodes":[],"categories_segments":[],"categories_sizes":[],"default_left":[1,1,1,1,1,1,1,1,1,1,0,1,1,1,0,0,1,1,1,0,1,0,1,0,0,1,0,0,0,1,1,0,0,0,0,0,1,0,0,0,0,0,0,0,0],"id":9,"left_children":[1,3,5,7,9,11,13,15,17,19,-1,21,23,25,-1,-1,27,29,31,-1,33,-1,35,-1,-1,37,-1,-1,-1,39,41,-1,-1,-1,-1,-1,43,-1,-1,-1,-1,-1,-1,-1,-1],"loss_changes":[3.8996875E3,2.1836875E3,5.3766016E2,2.1720312E3,2.6885742E2,1.739082E2,6.2461914E1,2.6743945E2,2.22975E3,1.8742188E1,0E0,9.6384766E1,2.1088867E0,3.2460938E1,0E0,0E0,3.483203E1,1.9713438E3,2.704707E2,0E0,1.12734375E1,0E0,9.908203E0,0E0,0E0,2.9814453E0,0E0,0E0,0E0,1.6196289E2,2.09E3,0E0,0E0,0E0,0E0,0E0,4.8515625E0,0E0,0E0,0E0,0E0,0E0,0E0,0E0,0E0],"parents":[2147483647,0,0,1,1,2,2,3,3,4,4,5,5,6,6,7,7,8,8,9,9,11,11,12,12,13,13,16,16,17,17,18,18,20,20,22,22,25,25,29,29,30,30,36,36],"right_children":[2,4,6,8,10,12,14,16,18,20,-1,22,24,26,-1,-1,28,30,32,-1,34,-1,36,-1,-1,38,-1,-1,-1,40,42,-1,-1,-1,-1,-1,44,-1,-1,-1,-1,-1,-1,-1,-1],"split_conditions":[-1.00377336E-1,3.7590902E-2,-6.8780124E-2,-5.9941225E-2,6.264154E-2,2.152523E0,-5.282974E-2,-7.338547E-2,6.0059078E-2,1.9443178E-1,3.7126178E-1,3.7697613E-1,-7.8587726E-2,2.376318E0,3.399162E-1,3.6594066E-1,1.3318785E0,-1.0126905E-1,7.5256415E-2,3.1721953E-1,-5.560086E-2,3.4656852E-1,-1.00122735E-1,1.1632726E-1,4.1342995E-1,9.473816E-2,2.950437E-1,4.959961E-1,3.5201266E-1,-1.2622969E-1,-1.563268E-1,4.919322E-1,3.66097E-1,3.1776744E-1,4.9322698E-1,1.3820481E-1,6.1575286E-2,4.2758676E-1,2.7964395E-1,4.1804048E-1,5.161129E-1,4.946818E-1,6.4098245E-1,5.368125E-1,3.870603E-1],"split_indices":[0,3,0,1,3,4,0,1,1,4,0,4,1,4,0,0,4,3,1,0,1,0,0,0,0,3,0,0,0,3,0,0,0,0,0,0,3,0,0,0,0,0,0,0,0],"split_type":[0,0,0,0,0,0,0,0,0,0,0,0,0,0,0,0,0,0,0,0,0,0,0,0,0,0,0,0,0,0,0,0,0,0,0,0,0,0,0,0,0,0,0,0,0],"sum_hessian":[4.432E3,3.881E3,5.51E2,3.56E3,3.21E2,2.88E2,2.63E2,2.82E2,3.278E3,2.18E2,1.03E2,1.94E2,9.4E1,1.38E2,1.25E2,8.6E1,1.96E2,3.016E3,2.62E2,9E0,2.09E2,1.6E1,1.78E2,1E0,9.3E1,1.21E2,1.7E1,1.8E2,1.6E1,2.84E2,2.732E3,1.83E2,7.9E1,8E0,2.01E2,1E0,1.77E2,1.13E2,8E0,1.03E2,1.81E2,2.93E2,2.439E3,1.64E2,1.3E1],"tree_param":{"num_deleted":"0","num_feature":"5","num_nodes":"45","size_leaf_vector":"0"}},{"base_weights":[1.0619276E1,1.0924885E1,7.9624352E0,1.1119882E1,8.165579E0,8.628175E0,6.6436834E0,8.308236E0,1.1309467E1,8.906734E0,7.05039E0,9.072963E0,7.155046E0,6.964517E0,9.022678E0,1.1488548E1,7.9908895E0,5.30174E0,9.01559E0,7.3077593E0,5.513972E0,9.236922E0,6.4849443E0,6.3921256E0,9.264038E0,7.7715507E0,1.1647539E1,8.478868E0,6.227638E0,4.739719E0,9.100273E0,2.2683816E0,9.259093E0,9.7911005E0,6.620892E0,1.2063093E1,1.0037485E1,2.0668347E0,8.510354E0,5.0309663E0,9.179472E0,3.6366577E0,9.295322E0],"categories":[],"categories_nodes":[],"categories_segments":[],"categories_sizes":[],"default_left":[1,1,1,1,1,1,0,1,1,1,1,1,0,0,1,1,1,0,1,0,0,1,0,0,0,1,1,1,0,0,1,0,1,0,0,0,0,0,0,0,0,0,0],"id":10,"left_children":[1,3,5,7,9,11,-1,13,15,17,19,21,-1,-1,23,25,27,-1,29,-1,-1,31,-1,-1,-1,33,35,37,-1,-1,39,-1,41,-1,-1,-1,-1,-1,-1,-1,-1,-1,-1],"loss_changes":[3.512375E3,2.046875E3,3.4741016E2,1.882625E3,1.5706055E2,1.3361914E2,0E0,1.6564453E2,1.9709688E3,1.3419922E1,3.5976562E0,3.726953E1,0E0,0E0,3.7288086E1,1.8543125E3,1.0293457E2,0E0,1.1180664E1,0E0,0E0,1.1902344E1,0E0,0E0,0E0,2.5586035E2,1.9891875E3,1.0474609E1,0E0,0E0,8.720703E-1,0E0,9.380859E0,0E0,0E0,0E0,0E0,0E0,0E0,0E0,0E0,0E0,0E0],"parents":[2147483647,0,0,1,1,2,2,3,3,4,4,5,5,7,7,8,8,9,9,10,10,11,11,14,14,15,15,16,16,18,18,21,21,25,25,26,26,27,27,30,30,32,32],"right_children":[2,4,6,8,10,12,-1,14,16,18,20,22,-1,-1,24,26,28,-1,30,-1,-1,32,-1,-1,-1,34,36,38,-1,-1,40,-1,42,-1,-1,-1,-1,-1,-1,-1,-1,-1,-1],"split_conditions":[-8.985028E-2,4.4157855E-2,-5.617582E-2,-6.539564E-2,6.366588E-2,2.2646744E0,3.3218417E-1,-7.623706E-2,6.66537E-2,-1.7911774E-1,8.1163935E-2,7.476503E-2,3.577523E-1,3.4822586E-1,-1.2740667E-1,2.521178E-1,7.769268E-2,2.65087E-1,-5.688133E-2,3.6538798E-1,2.756986E-1,-7.853866E-2,3.242472E-1,3.1960627E-1,4.632019E-1,-1.675753E-1,2.037679E0,-2.3173389E-1,3.113819E-1,2.3698595E-1,2.0738801E-1,1.1341908E-1,2.6021153E-1,4.8955503E-1,3.310446E-1,6.0315466E-1,5.0187427E-1,1.03341736E-1,4.255177E-1,2.5154832E-1,4.5897362E-1,1.818329E-1,4.6476611E-1],"split_indices":[0,3,0,1,3,4,0,1,1,0,3,3,0,0,0,4,1,0,1,0,0,1,0,0,0,0,4,0,0,0,4,0,4,0,0,0,0,0,0,0,0,0,0],"split_type":[0,0,0,0,0,0,0,0,0,0,0,0,0,0,0,0,0,0,0,0,0,0,0,0,0,0,0,0,0,0,0,0,0,0,0,0,0,0,0,0,0,0,0],"sum_hessian":[4.432E3,3.972E3,4.6E2,3.707E3,2.65E2,3.02E2,1.58E2,2.37E2,3.47E3,1.55E2,1.1E2,2.28E2,7.4E1,8.6E1,1.51E2,3.29E3,1.8E2,6E0,1.49E2,9.1E1,1.9E1,2.12E2,1.6E1,1.5E1,1.36E2,1.37E2,3.153E3,1.38E2,4.2E1,4E0,1.45E2,1E0,2.11E2,4.7E1,9E1,2.501E3,6.52E2,1E0,1.37E2,4E0,1.41E2,2E0,2.09E2],"tree_param":{"num_deleted":"0","num_feature":"5","num_nodes":"43","size_leaf_vector":"0"}},{"base_weights":[1.0090009E1,1.0412303E1,7.805163E0,1.0619639E1,8.087035E0,8.7066145E0,6.788782E0,8.127939E0,1.0831451E1,8.966351E0,7.0571623E0,9.201505E0,7.2245593E0,7.158841E0,5.7970953E0,7.0154576E0,9.040568E0,1.1082582E1,8.433244E0,7.052202E0,9.262987E0,7.414477E0,5.7365403E0,6.242138E0,9.410173E0,7.265856E0,2.0430117E0,7.8822875E0,6.335081E0,5.817134E0,7.5290623E0,6.475355E0,9.294745E0,8.847448E0,1.1359146E1,9.279846E0,7.054365E0,7.179415E0,1.8723302E0,5.2050853E0,9.4017E0,3.8945975E0,7.504609E0,2.3934166E0,9.433762E0,5.6846647E0,8.128559E0,7.747258E0,9.613309E0,8.17745E0,1.1597455E1,7.00723E0,9.578099E0,7.5267787E0,5.874128E0,2.1118262E0,7.533903E0,9.580715E0,7.0218053E0],"categories":[],"categories_nodes":[],"categories_segments":[],"categories_sizes":[],"default_left":[1,1,1,1,1,1,1,1,1,1,1,1,1,1,0,1,1,1,1,1,1,1,0,0,1,0,0,1,0,0,0,0,0,1,1,1,1,0,0,0,0,0,1,0,1,0,0,0,0,0,0,0,0,0,0,0,0,0,0],"id":11,"left_children":[1,3,5,7,9,11,13,15,17,19,21,23,25,27,-1,29,31,33,35,37,39,41,-1,-1,43,-1,-1,45,-1,-1,-1,-1,-1,47,49,51,53,-1,-1,-1,-1,-1,55,-1,57,-1,-1,-1,-1,-1,-1,-1,-1,-1,-1,-1,-1,-1,-1],"loss_changes":[3.1831562E3,1.7856562E3,4.4664453E2,1.791375E3,2.2832227E2,1.4549219E2,5.538379E1,2.2390234E2,1.8813438E3,3.1202148E1,2.9663574E1,7.279297E1,1.6323242E0,6.210254E1,0E0,3.744336E1,3.891992E1,1.732375E3,3.0225586E2,4.3494873E0,3.211914E1,7.8916016E0,0E0,0E0,1.0029297E1,0E0,0E0,5.748535E0,0E0,0E0,0E0,0E0,0E0,2.0442383E2,1.9030938E3,6.3023438E1,2.4924316E1,0E0,0E0,0E0,0E0,0E0,1.9404297E0,0E0,2.1953125E0,0E0,0E0,0E0,0E0,0E0,0E0,0E0,0E0,0E0,0E0,0E0,0E0,0E0,0E0],"parents":[2147483647,0,0,1,1,2,2,3,3,4,4,5,5,6,6,7,7,8,8,9,9,10,10,11,11,12,12,13,13,15,15,16,16,17,17,18,18,19,19,20,20,21,21,24,24,27,27,33,33,34,34,35,35,36,36,42,42,44,44],"right_children":[2,4,6,8,10,12,14,16,18,20,22,24,26,28,-1,30,32,34,36,38,40,42,-1,-1,44,-1,-1,46,-1,-1,-1,-1,-1,48,50,52,54,-1,-1,-1,-1,-1,56,-1,58,-1,-1,-1,-1,-1,-1,-1,-1,-1,-1,-1,-1,-1,-1],"split_conditions":[-1.00377336E-1,3.7590902E-2,-6.8780124E-2,-5.9941225E-2,5.7065774E-2,2.3065743E0,-4.686909E-2,-7.139431E-2,5.658648E-2,-1.4142525E-1,7.595897E-2,3.7697613E-1,9.605922E-2,1.5444019E0,2.8985476E-1,-7.67954E-2,-1.3418466E-1,-9.424907E-2,7.082746E-2,1.7895088E-2,2.6624545E-1,1.4208302E-1,2.8682703E-1,3.121069E-1,-1.00122735E-1,3.6329278E-1,1.0215058E-1,5.148779E-1,3.1675407E-1,2.908567E-1,3.7645313E-1,3.2376775E-1,4.6473727E-1,-1.2319179E-1,-1.8463069E-1,6.8962444E-3,7.8307435E-2,3.5897076E-1,9.361651E-2,2.6025426E-1,4.70085E-1,1.9472988E-1,-2.267344E-2,1.1967083E-1,6.1575286E-2,2.8423324E-1,4.0642795E-1,3.8736293E-1,4.8066545E-1,4.0887251E-1,5.798728E-1,3.503615E-1,4.7890496E-1,3.7633893E-1,2.937064E-1,1.0559131E-1,3.7669516E-1,4.7903576E-1,3.5109028E-1],"split_indices":[0,3,0,1,3,4,0,1,1,0,3,4,3,4,0,1,0,3,1,2,4,4,0,0,0,0,0,4,0,0,0,0,0,3,0,3,1,0,0,0,0,0,2,0,3,0,0,0,0,0,0,0,0,0,0,0,0,0,0],"split_type":[0,0,0,0,0,0,0,0,0,0,0,0,0,0,0,0,0,0,0,0,0,0,0,0,0,0,0,0,0,0,0,0,0,0,0,0,0,0,0,0,0,0,0,0,0,0,0,0,0,0,0,0,0,0,0,0,0,0,0],"sum_hessian":[4.432E3,3.881E3,5.51E2,3.56E3,3.21E2,2.88E2,2.63E2,2.82E2,3.278E3,1.69E2,1.52E2,2.12E2,7.6E1,1.87E2,7.6E1,1.31E2,1.51E2,2.964E3,3.14E2,2.6E1,1.43E2,1.16E2,3.6E1,1.6E1,1.96E2,7.5E1,1E0,9.5E1,9.2E1,4.3E1,8.8E1,1.6E1,1.35E2,3.3E2,2.634E3,1.91E2,1.23E2,2.5E1,1E0,6E0,1.37E2,4E0,1.12E2,1E0,1.95E2,1.2E1,8.3E1,1.4E2,1.9E2,1.86E2,2.448E3,2.5E1,1.66E2,8.4E1,3.9E1,1E0,1.11E2,1.81E2,1.4E1],"tree_param":{"num_deleted":"0","num_feature":"5","num_nodes":"59","size_leaf_vector":"0"}},{"base_weights":[9.587761E0,9.842089E0,6.9846E0,1.0002324E1,7.070579E0,7.58806E0,5.9472313E0,7.748503E0,1.0191197E1,7.414609E0,5.494671E0,8.291883E0,6.6880226E0,6.173869E0,5.0196934E0,6.2784486E0,8.3221655E0,1.0421992E1,7.976559E0,4.362714E0,7.530519E0,6.2518425E0,8.572133E0,6.878714E0,4.8346033E0,6.497905E0,5.229046E0,8.468981E0,5.64085E0,6.8682094E0,1.0578512E1,8.793617E0,6.6949134E0,2.9679937E0,7.5665255E0,8.729056E0,5.362527E0,1.9721541E0,6.908058E0,7.397811E0,8.80716E0,8.888404E0,5.816844E0,1.1122866E1,9.323367E0,6.7088895E0,9.076924E0,7.1245165E0,5.6100755E0,6.97957E0,3.4468892E0],"categories":[],"categories_nodes":[],"categories_segments":[],"categories_sizes":[],"default_left":[1,1,1,1,1,1,1,1,1,1,0,1,1,1,0,0,1,1,1,0,1,0,1,1,0,0,0,1,0,1,1,1,1,0,0,0,0,0,1,0,0,0,0,0,0,0,0,0,0,0,0],"id":12,"left_children":[1,3,5,7,9,11,13,15,17,19,-1,21,23,25,-1,-1,27,29,31,-1,33,-1,35,37,-1,-1,-1,39,-1,41,43,45,47,-1,-1,-1,-1,-1,49,-1,-1,-1,-1,-1,-1,-1,-1,-1,-1,-1,-1],"loss_changes":[2.8661875E3,1.7215938E3,2.0402344E2,1.5441875E3,8.0703125E1,1.01643555E2,7.5146484E-1,1.9990039E2,1.7134375E3,3.1174805E1,0E0,2.359082E1,7.0356445E0,1.8427734E0,0E0,0E0,3.5683594E1,1.6961875E3,2.9297852E2,0E0,5.961914E0,0E0,1.1615234E1,9.1796875E-1,0E0,0E0,0E0,6.932617E0,0E0,2.3928027E2,1.9760625E3,5.840918E1,2.2947754E1,0E0,0E0,0E0,0E0,0E0,6.933594E-1,0E0,0E0,0E0,0E0,0E0,0E0,0E0,0E0,0E0,0E0,0E0,0E0],"parents":[2147483647,0,0,1,1,2,2,3,3,4,4,5,5,6,6,7,7,8,8,9,9,11,11,12,12,13,13,16,16,17,17,18,18,20,20,22,22,23,23,27,27,29,29,30,30,31,31,32,32,38,38],"right_children":[2,4,6,8,10,12,14,16,18,20,-1,22,24,26,-1,-1,28,30,32,-1,34,-1,36,38,-1,-1,-1,40,-1,42,44,46,48,-1,-1,-1,-1,-1,50,-1,-1,-1,-1,-1,-1,-1,-1,-1,-1,-1,-1],"split_conditions":[-8.323887E-2,5.098114E-2,-5.5097148E-2,-5.9941225E-2,7.595897E-2,1.6819644E0,-4.0580258E-2,-7.623706E-2,5.658648E-2,-1.7296258E-1,2.7473354E-1,4.6624053E-1,2.8230758E0,1.8388929E0,2.5098467E-1,3.1392244E-1,1.8332375E0,2.521178E-1,7.082746E-2,2.181357E-1,-2.267344E-2,3.1259212E-1,7.931718E-2,-7.668013E-2,2.4173017E-1,3.2489523E-1,2.614523E-1,-7.031502E-2,2.820425E-1,-1.7335355E-1,1.6254084E0,-1.2661502E-1,7.8286484E-2,1.483997E-1,3.7832627E-1,4.3645284E-1,2.6812634E-1,9.860771E-2,9.758824E-2,3.6989054E-1,4.40358E-1,4.444202E-1,2.908422E-1,5.561433E-1,4.6616837E-1,3.3544448E-1,4.5384622E-1,3.5622582E-1,2.8050378E-1,3.489785E-1,1.7234446E-1],"split_indices":[0,3,0,1,3,4,0,1,1,0,0,4,4,4,0,0,4,4,1,0,2,0,3,1,0,0,0,1,0,0,4,0,1,0,0,0,0,0,3,0,0,0,0,0,0,0,0,0,0,0,0],"split_type":[0,0,0,0,0,0,0,0,0,0,0,0,0,0,0,0,0,0,0,0,0,0,0,0,0,0,0,0,0,0,0,0,0,0,0,0,0,0,0,0,0,0,0,0,0,0,0,0,0,0,0],"sum_hessian":[4.432E3,4.035E3,3.97E2,3.812E3,2.23E2,2.47E2,1.5E2,2.98E2,3.514E3,1.8E2,4.3E1,1.34E2,1.13E2,1.16E2,3.4E1,8.7E1,2.11E2,3.179E3,3.35E2,8E0,1.72E2,1.9E1,1.15E2,1E2,1.3E1,8.2E1,3.4E1,1.98E2,1.3E1,1.36E2,3.043E3,2.01E2,1.34E2,2E0,1.7E2,1.08E2,7E0,1E0,9.9E1,5.3E1,1.45E2,4.4E1,9.2E1,2.117E3,9.26E2,2.7E1,1.74E2,9.2E1,4.2E1,9.6E1,3E0],"tree_param":{"num_deleted":"0","num_feature":"5","num_nodes":"51","size_leaf_vector":"0"}},{"base_weights":[9.11025E0,9.401473E0,7.0456944E0,5.484933E0,9.50358E0,7.8018613E0,6.0592136E0,7.1435213E0,4.371125E0,7.3166E0,9.680399E0,8.243943E0,6.4557056E0,6.3926845E0,5.2067432E0,4.7735453E0,8.279766E0,2.8533843E0,5.43017E0,6.3205485E0,8.112511E0,9.900985E0,7.5763707E0,5.618746E0,8.427951E0,7.0893764E0,5.6385293E0,8.458701E0,1.9926579E0,3.8847125E0,2.1604018E0,6.481103E0,4.5543776E0,5.2383137E0,6.8021393E0,8.323077E0,4.8921294E0,1.0121427E1,7.4024405E0,8.333617E0,6.4700108E0,2.0555096E0,8.44841E0,4.9575763E0,7.3075156E0,5.8502564E0,4.2322226E0,3.5320492E0,1.5591592E0,4.0402436E0,8.385107E0,1.0448548E1,8.461473E0,8.249275E0,6.392152E0,6.1448E0,8.617685E0,6.7983317E0,5.2368145E0],"categories":[],"categories_nodes":[],"categories_segments":[],"categories_sizes":[],"default_left":[1,1,1,1,1,1,1,1,1,1,1,1,0,1,0,0,1,1,1,1,1,1,1,0,1,1,1,0,0,0,1,0,0,0,0,1,0,1,1,1,1,0,0,0,0,0,0,0,0,0,0,0,0,0,0,0,0,0,0],"id":13,"left_children":[1,3,5,7,9,11,13,15,17,19,21,23,-1,25,-1,-1,27,29,31,33,35,37,39,-1,41,43,45,-1,-1,-1,47,-1,-1,-1,-1,49,-1,51,53,55,57,-1,-1,-1,-1,-1,-1,-1,-1,-1,-1,-1,-1,-1,-1,-1,-1,-1,-1],"loss_changes":[2.5990625E3,1.5003125E3,3.6448633E2,1.5535693E2,1.3916875E3,1.3066992E2,3.6078125E1,6.549817E1,8.5769165E1,1.7624707E2,1.5475625E3,6.3265625E1,0E0,4.987207E1,0E0,0E0,1.1269287E1,1.1618835E1,3.6169434E0,3.3166016E1,6.506641E1,1.6660938E3,2.2757812E2,0E0,1.0274414E1,3.2998047E0,1.1450195E0,0E0,0E0,0E0,1.0162132E1,0E0,0E0,0E0,0E0,4.6435547E0,0E0,1.4874062E3,1.6971191E2,6.891504E1,2.1487305E1,0E0,0E0,0E0,0E0,0E0,0E0,0E0,0E0,0E0,0E0,0E0,0E0,0E0,0E0,0E0,0E0,0E0,0E0],"parents":[2147483647,0,0,1,1,2,2,3,3,4,4,5,5,6,6,7,7,8,8,9,9,10,10,11,11,13,13,16,16,17,17,18,18,19,19,20,20,21,21,22,22,24,24,25,25,26,26,30,30,35,35,37,37,38,38,39,39,40,40],"right_children":[2,4,6,8,10,12,14,16,18,20,22,24,-1,26,-1,-1,28,30,32,34,36,38,40,-1,42,44,46,-1,-1,-1,48,-1,-1,-1,-1,50,-1,52,54,56,58,-1,-1,-1,-1,-1,-1,-1,-1,-1,-1,-1,-1,-1,-1,-1,-1,-1,-1],"split_conditions":[-1.00377336E-1,1.9602233E-1,-6.6673994E-2,-1.6706467E-1,-5.9941225E-2,2.3065743E0,-4.6641573E-2,1.0785323E-1,1.61452E-1,-7.139431E-2,3.6243107E-2,3.7697613E-1,3.227853E-1,1.5444019E0,2.6033717E-1,2.3867726E-1,6.3079014E-2,-1.06079996E-1,-7.5915486E-2,-7.67954E-2,1.8332375E0,6.0059078E-2,5.728874E-2,2.8093728E-1,-1.00122735E-1,5.148779E-1,2.4893415E0,4.2293507E-1,9.96329E-2,1.9423562E-1,-1.3336724E-1,3.2405517E-1,2.2771887E-1,2.6191568E-1,3.4010696E-1,-1.7796527E-1,2.4460648E-1,2.1928697E0,7.082746E-2,-1.4142525E-1,7.595897E-2,1.0277548E-1,4.224205E-1,2.4787882E-1,3.653758E-1,2.9251283E-1,2.1161114E-1,1.7660247E-1,7.795796E-2,2.0201218E-1,4.1925535E-1,5.2242744E-1,4.2307368E-1,4.1246375E-1,3.196076E-1,3.0724E-1,4.3088427E-1,3.399166E-1,2.6184073E-1],"split_indices":[0,4,0,0,1,4,0,4,4,1,3,4,0,4,0,0,3,3,3,1,4,1,3,0,0,4,4,0,0,0,0,0,0,0,0,0,0,4,1,0,3,0,0,0,0,0,0,0,0,0,0,0,0,0,0,0,0,0,0],"split_type":[0,0,0,0,0,0,0,0,0,0,0,0,0,0,0,0,0,0,0,0,0,0,0,0,0,0,0,0,0,0,0,0,0,0,0,0,0,0,0,0,0,0,0,0,0,0,0,0,0,0,0,0,0,0,0,0,0,0,0],"sum_hessian":[4.432E3,3.881E3,5.51E2,1E2,3.781E3,3.08E2,2.43E2,3.8E1,6.2E1,2.86E2,3.495E3,2.28E2,8E1,1.7E2,7.3E1,1.4E1,2.4E1,2.7E1,3.5E1,1.31E2,1.55E2,3.16E3,3.35E2,1.7E1,2.11E2,8.4E1,8.6E1,2.3E1,1E0,9E0,1.8E1,1.3E1,2.2E1,4.4E1,8.7E1,1.44E2,1.1E1,2.901E3,2.59E2,1.95E2,1.4E2,1E0,2.1E2,1E1,7.4E1,7.2E1,1.4E1,4E0,1.4E1,3E0,1.41E2,2.419E3,4.82E2,1.37E2,1.22E2,2.5E1,1.7E2,1.07E2,3.3E1],"tree_param":{"num_deleted":"0","num_feature":"5","num_nodes":"59","size_leaf_vector":"0"}},{"base_weights":[8.656713E0,8.933008E0,6.6979504E0,5.22813E0,9.029587E0,7.47382E0,5.8232374E0,6.805864E0,4.168451E0,7.2565475E0,9.228979E0,7.9845862E0,6.3467326E0,6.1408386E0,4.9721704E0,4.55078E0,7.88668E0,2.7685828E0,5.209243E0,6.035225E0,7.886878E0,9.445067E0,7.258949E0,5.3633194E0,8.188927E0,6.593573E0,4.5906787E0,6.766947E0,5.4285026E0,8.053389E0,1.9428415E0,3.7099004E0,2.159495E0,6.4160047E0,4.4698977E0,4.9822187E0,6.484682E0,5.519556E0,8.230774E0,9.689976E0,7.2435985E0,7.970347E0,6.1728954E0,2.0041218E0,8.212414E0,6.7182713E0,3.3545084E0,5.0848136E0,7.015678E0,5.6497912E0,4.192589E0,3.482321E0,1.4863983E0,5.9069424E0,3.126162E0,8.327891E0,5.646119E0,7.387902E0,9.929621E0,7.9695373E0,6.0751424E0,3.0765114E0,8.078939E0,6.4964294E0,4.982675E0,8.3544E0,5.9524145E0,1.7116401E0,6.7616267E0,7.0525703E0,2.0321336E0],"categories":[],"categories_nodes":[],"categories_segments":[],"categories_sizes":[],"default_left":[1,1,1,1,1,1,1,1,1,1,1,1,1,1,0,0,1,1,1,1,1,1,1,0,1,1,0,1,1,0,0,0,1,0,0,0,0,1,1,1,1,1,1,0,1,1,0,0,1,0,0,0,0,0,0,0,0,0,0,0,0,0,0,0,0,0,0,0,0,0,0],"id":14,"left_children":[1,3,5,7,9,11,13,15,17,19,21,23,25,27,-1,-1,29,31,33,35,37,39,41,-1,43,45,-1,47,49,-1,-1,-1,51,-1,-1,-1,-1,53,55,57,59,61,63,-1,65,67,-1,-1,69,-1,-1,-1,-1,-1,-1,-1,-1,-1,-1,-1,-1,-1,-1,-1,-1,-1,-1,-1,-1,-1,-1],"loss_changes":[2.3393125E3,1.3417812E3,3.310996E2,1.4049097E2,1.2700938E3,1.15694336E2,4.082617E1,5.9165405E1,7.736682E1,2.5032617E2,1.377125E3,6.0529297E1,1.0910156E1,4.711328E1,0E0,0E0,9.1258545E0,8.615494E0,2.548645E0,3.2058105E1,1.5972754E2,1.5780312E3,2.1348828E2,0E0,9.542969E0,1.0179932E1,0E0,4.493164E0,1.7475586E0,0E0,0E0,0E0,1.2631683E1,0E0,0E0,0E0,0E0,1.3984863E1,7.701172E0,1.4426562E3,2.1453516E2,8.249414E1,2.115625E1,0E0,7.388672E0,5.140381E0,0E0,0E0,5.605469E-1,0E0,0E0,0E0,0E0,0E0,0E0,0E0,0E0,0E0,0E0,0E0,0E0,0E0,0E0,0E0,0E0,0E0,0E0,0E0,0E0,0E0,0E0],"parents":[2147483647,0,0,1,1,2,2,3,3,4,4,5,5,6,6,7,7,8,8,9,9,10,10,11,11,12,12,13,13,16,16,17,17,18,18,19,19,20,20,21,21,22,22,24,24,25,25,27,27,28,28,32,32,37,37,38,38,39,39,40,40,41,41,42,42,44,44,45,45,48,48],"right_children":[2,4,6,8,10,12,14,16,18,20,22,24,26,28,-1,-1,30,32,34,36,38,40,42,-1,44,46,-1,48,50,-1,-1,-1,52,-1,-1,-1,-1,54,56,58,60,62,64,-1,66,68,-1,-1,70,-1,-1,-1,-1,-1,-1,-1,-1,-1,-1,-1,-1,-1,-1,-1,-1,-1,-1,-1,-1,-1,-1],"split_conditions":[-1.00377336E-1,1.9602233E-1,-6.8780124E-2,-1.6706467E-1,-5.333408E-2,2.152523E0,-4.686909E-2,1.0785323E-1,1.6715807E-1,-7.031502E-2,3.265307E-2,3.7697613E-1,2.8413508E0,1.5444019E0,2.4860851E-1,2.2753899E-1,6.3079014E-2,-1.06079996E-1,-9.9660754E-2,-7.67954E-2,-1.2813427E-1,5.658648E-2,5.728874E-2,2.6816598E-1,-1.00122735E-1,9.100476E-2,2.2953394E-1,5.635017E-1,2.4893415E0,4.0266943E-1,9.714208E-2,1.8549502E-1,-1.3329686E-1,3.2080024E-1,2.2349489E-1,2.4911094E-1,3.242341E-1,1.5151072E-2,1.4409175E0,-1.0126905E-1,7.082746E-2,-1.9732167E-1,7.595897E-2,1.0020609E-1,6.1575286E-2,-7.3000625E-2,1.6772543E-1,2.542407E-1,9.9200435E-2,2.8248957E-1,2.0962945E-1,1.7411606E-1,7.431992E-2,2.9534712E-1,1.563081E-1,4.1639456E-1,2.8230596E-1,3.693951E-1,4.9648103E-1,3.9847687E-1,3.0375713E-1,1.5382557E-1,4.0394697E-1,3.2482147E-1,2.4913375E-1,4.1772E-1,2.9762074E-1,8.558201E-2,3.3808133E-1,3.5262853E-1,1.0160668E-1],"split_indices":[0,4,0,0,1,4,0,4,4,1,3,4,4,4,0,0,3,3,3,1,0,1,3,0,0,3,0,4,4,0,0,0,0,0,0,0,0,2,4,3,1,0,3,0,3,1,0,0,3,0,0,0,0,0,0,0,0,0,0,0,0,0,0,0,0,0,0,0,0,0,0],"split_type":[0,0,0,0,0,0,0,0,0,0,0,0,0,0,0,0,0,0,0,0,0,0,0,0,0,0,0,0,0,0,0,0,0,0,0,0,0,0,0,0,0,0,0,0,0,0,0,0,0,0,0,0,0,0,0,0,0,0,0,0,0,0,0,0,0,0,0,0,0,0,0],"sum_hessian":[4.432E3,3.881E3,5.51E2,1E2,3.781E3,2.88E2,2.63E2,3.8E1,6.2E1,3.86E2,3.395E3,1.94E2,9.4E1,1.87E2,7.6E1,1.4E1,2.4E1,2.8E1,3.4E1,1.35E2,2.51E2,3.056E3,3.39E2,1.6E1,1.78E2,8E1,1.4E1,9.5E1,9.2E1,2.3E1,1E0,9E0,1.9E1,1E1,2.4E1,4.4E1,9.1E1,3.4E1,2.17E2,2.747E3,3.09E2,2.01E2,1.38E2,1E0,1.77E2,7.6E1,4E0,1.5E1,8E1,7.5E1,1.7E1,5E0,1.4E1,2.8E1,6E0,2.07E2,1E1,2.62E2,2.485E3,1.87E2,1.22E2,5E0,1.96E2,1.05E2,3.3E1,1.64E2,1.3E1,1E0,7.5E1,7.9E1,1E0],"tree_param":{"num_deleted":"0","num_feature":"5","num_nodes":"71","size_leaf_vector":"0"}},{"base_weights":[8.226016E0,8.487937E0,6.3691287E0,7.0398993E0,8.729409E0,6.9829545E0,5.3669977E0,6.0605245E0,7.458435E0,4.94287E0,8.836903E0,7.439178E0,5.9382625E0,5.603027E0,4.4807606E0,7.547447E0,5.322363E0,5.8956137E0,7.795864E0,2.2852125E0,5.6760974E0,6.119066E0,8.981217E0,5.391618E0,7.6604214E0,6.162209E0,4.377005E0,5.9593687E0,4.781991E0,4.4351287E0,8.603688E0,4.087246E0,6.158139E0,8.925689E-1,6.023973E0,8.189979E0,5.9778094E0,3.6273975E0,1.4170331E0,7.0307655E0,5.0322456E0,4.726687E0,6.5674043E0,9.13157E0,6.194311E0,7.815319E0,5.8213625E0,6.322965E0,3.977131E0,8.946812E0,3.2788782E0,5.569058E0,3.0333872E0,2.9257405E0,6.856272E0,6.0909443E0,6.6798544E-1,8.438261E0,5.858012E0,1.7936119E0,6.2446523E0,9.482026E0,7.7036405E0,6.6348214E0,4.7069097E0,1.9540188E0,7.8362136E0,1.6688492E0,6.358932E0],"categories":[],"categories_nodes":[],"categories_segments":[],"categories_sizes":[],"default_left":[1,1,1,1,1,1,1,1,1,1,1,1,1,1,0,1,1,1,1,1,1,1,1,0,1,1,0,0,0,0,1,1,1,0,1,1,1,0,0,0,0,0,0,1,1,1,0,1,0,0,0,0,0,0,0,0,0,0,0,0,0,0,0,0,0,0,0,0,0],"id":15,"left_children":[1,3,5,7,9,11,13,15,17,19,21,23,25,27,-1,29,31,33,35,37,39,41,43,-1,45,47,-1,-1,-1,-1,49,51,53,-1,55,57,59,-1,-1,-1,-1,-1,-1,61,63,65,-1,67,-1,-1,-1,-1,-1,-1,-1,-1,-1,-1,-1,-1,-1,-1,-1,-1,-1,-1,-1,-1,-1],"loss_changes":[2.1019375E3,1.2959375E3,3.0207617E2,1.843457E2,1.308875E3,1.17396484E2,1.9658203E1,1.4971289E2,1.5864648E2,1.7020386E2,1.2119219E3,6.37959E1,1.07890625E1,1.9776367E1,0E0,1.4264624E2,9.767139E1,4.150293E1,1.7746289E2,2.0495537E1,2.8290527E1,7.258496E1,1.22775E3,0E0,1.3472656E1,7.1689453E0,0E0,0E0,0E0,0E0,4.374707E1,6.2749634E1,1.3564893E2,0E0,2.1398926E1,9.936914E1,5.579077E1,0E0,0E0,0E0,0E0,0E0,0E0,1.3811875E3,7.360547E1,7.711914E0,0E0,3.4492188E0,0E0,0E0,0E0,0E0,0E0,0E0,0E0,0E0,0E0,0E0,0E0,0E0,0E0,0E0,0E0,0E0,0E0,0E0,0E0,0E0,0E0],"parents":[2147483647,0,0,1,1,2,2,3,3,4,4,5,5,6,6,7,7,8,8,9,9,10,10,11,11,12,12,13,13,15,15,16,16,17,17,18,18,19,19,20,20,21,21,22,22,24,24,25,25,30,30,31,31,32,32,34,34,35,35,36,36,43,43,44,44,45,45,47,47],"right_children":[2,4,6,8,10,12,14,16,18,20,22,24,26,28,-1,30,32,34,36,38,40,42,44,-1,46,48,-1,-1,-1,-1,50,52,54,-1,56,58,60,-1,-1,-1,-1,-1,-1,62,64,66,-1,68,-1,-1,-1,-1,-1,-1,-1,-1,-1,-1,-1,-1,-1,-1,-1,-1,-1,-1,-1,-1,-1],"split_conditions":[-1.00377336E-1,-1.2463346E-1,-6.347443E-2,-1.9582656E-1,2.8525648E-1,2.152523E0,-4.346941E-2,3.275196E-1,-4.2014837E-2,1.7317247E-1,-6.960368E-2,4.1259986E-1,2.838376E0,1.846739E0,2.2403803E-1,1.16660014E-1,1.9460757E0,-9.731567E-2,4.4329192E-2,-1.06079996E-1,-9.6719995E-2,-7.67954E-2,6.866193E-2,2.695809E-1,5.803196E-2,8.0739394E-2,2.1885026E-1,2.9796845E-1,2.3909955E-1,2.2175644E-1,4.955735E-2,4.7678256E-1,-2.4732591E-1,4.4628445E-2,-4.237047E-2,4.356891E-2,-1.8615337E-1,1.8136989E-1,7.0851654E-2,3.5153827E-1,2.5161228E-1,2.3633435E-1,3.283702E-1,1.9544798E0,7.734324E-2,-1.00122735E-1,2.9106814E-1,-7.3000625E-2,1.9885655E-1,4.4734058E-1,1.6394392E-1,2.784529E-1,1.5166937E-1,1.4628702E-1,3.428136E-1,3.0454722E-1,3.3399273E-2,4.2191306E-1,2.9290062E-1,8.96806E-2,3.122326E-1,4.741013E-1,3.8518202E-1,3.3174106E-1,2.3534548E-1,9.7700946E-2,3.918107E-1,8.3442464E-2,3.179466E-1],"split_indices":[0,0,0,0,4,4,0,4,1,4,1,4,4,4,0,4,4,3,1,3,3,1,1,0,3,3,0,0,0,0,3,4,0,0,1,3,0,0,0,0,0,0,0,4,1,0,0,1,0,0,0,0,0,0,0,0,0,0,0,0,0,0,0,0,0,0,0,0,0],"split_type":[0,0,0,0,0,0,0,0,0,0,0,0,0,0,0,0,0,0,0,0,0,0,0,0,0,0,0,0,0,0,0,0,0,0,0,0,0,0,0,0,0,0,0,0,0,0,0,0,0,0,0,0,0,0,0,0,0,0,0,0,0,0,0,0,0,0,0,0,0],"sum_hessian":[4.432E3,3.881E3,5.51E2,5.59E2,3.322E3,3.38E2,2.13E2,1.72E2,3.87E2,9.3E1,3.229E3,2.31E2,1.07E2,1.64E2,4.9E1,5.4E1,1.18E2,7.2E1,3.15E2,2.1E1,7.2E1,1.65E2,3.064E3,2.5E1,2.06E2,9.1E1,1.6E1,1.1E2,5.4E1,1.5E1,3.9E1,5E1,6.8E1,2E0,7E1,2.56E2,5.9E1,7E0,1.4E1,2E1,5.2E1,4.3E1,1.22E2,2.905E3,1.59E2,1.87E2,1.9E1,8.3E1,8E0,3.6E1,3E0,1.9E1,3.1E1,1.3E1,5.5E1,6.9E1,1E0,2.29E2,2.7E1,4E0,5.5E1,2.328E3,5.77E2,1.2E2,3.9E1,1E0,1.86E2,1E0,8.2E1],"tree_param":{"num_deleted":"0","num_feature":"5","num_nodes":"69","size_leaf_vector":"0"}},{"base_weights":[7.8166842E0,8.023919E0,5.6955347E0,8.197049E0,6.171408E0,6.1953135E0,4.836988E0,6.568626E0,8.391493E0,6.9122343E0,5.3688593E0,6.7942815E0,5.431665E0,5.02693E0,4.063838E0,5.502552E0,7.132104E0,8.602413E0,6.4728937E0,5.356293E0,7.143143E0,5.6458764E0,4.279395E0,5.1295147E0,7.0227385E0,5.6475945E0,4.2719765E0,5.3031073E0,4.2283688E0,4.571879E0,5.900876E0,5.1027136E0,7.39805E0,6.2711034E0,8.809392E0,6.9465404E0,5.0259523E0,5.472812E0,1.1634026E0,4.0285406E0,7.243548E0,1.415411E0,5.6670423E0,7.157654E0,4.306676E0,5.7570815E0,3.4800298E0,5.7013836E0,3.5799253E0,2.9127834E0,7.425215E0,5.634932E0,7.025923E0,6.3199153E0,9.0163965E0,7.149544E0,5.0351577E0,5.7239723E0,2.6604376E0,2.7383018E0,5.7135644E0,1.6271279E0,5.7861843E0],"categories":[],"categories_nodes":[],"categories_segments":[],"categories_sizes":[],"default_left":[1,1,1,1,1,1,1,1,1,1,1,1,1,1,0,1,1,1,1,1,1,1,0,0,1,1,0,0,0,0,0,1,1,1,1,1,0,1,0,0,0,0,1,0,0,1,0,0,0,0,0,0,0,0,0,0,0,0,0,0,0,0,0],"id":16,"left_children":[1,3,5,7,9,11,13,15,17,19,21,23,25,27,-1,29,31,33,35,37,39,41,-1,-1,43,45,-1,-1,-1,-1,-1,47,49,51,53,55,-1,57,-1,-1,-1,-1,59,-1,-1,61,-1,-1,-1,-1,-1,-1,-1,-1,-1,-1,-1,-1,-1,-1,-1,-1,-1],"loss_changes":[1.9029375E3,1.2438594E3,1.4080957E2,1.1126406E3,1.7038867E2,7.653027E1,1.7460938E0,1.9983789E2,1.2760938E3,2.569043E1,2.7748535E1,1.5321289E1,4.42041E0,3.380127E0,0E0,2.5662598E1,1.009541E2,1.3740156E3,1.9124805E2,6.8238525E0,1.8353027E1,3.977539E0,0E0,0E0,1.1681152E1,2.0358887E0,0E0,0E0,0E0,0E0,0E0,9.673889E0,5.786133E0,7.805762E1,1.3436875E3,5.94541E1,0E0,3.136963E0,0E0,0E0,0E0,0E0,2.4760742E0,0E0,0E0,1.0419922E0,0E0,0E0,0E0,0E0,0E0,0E0,0E0,0E0,0E0,0E0,0E0,0E0,0E0,0E0,0E0,0E0,0E0],"parents":[2147483647,0,0,1,1,2,2,3,3,4,4,5,5,6,6,7,7,8,8,9,9,10,10,11,11,12,12,13,13,15,15,16,16,17,17,18,18,19,19,20,20,21,21,24,24,25,25,31,31,32,32,33,33,34,34,35,35,37,37,42,42,45,45],"right_children":[2,4,6,8,10,12,14,16,18,20,22,24,26,28,-1,30,32,34,36,38,40,42,-1,-1,44,46,-1,-1,-1,-1,-1,48,50,52,54,56,-1,58,-1,-1,-1,-1,60,-1,-1,62,-1,-1,-1,-1,-1,-1,-1,-1,-1,-1,-1,-1,-1,-1,-1,-1,-1],"split_conditions":[-8.323887E-2,3.7590902E-2,-5.5097148E-2,-5.332517E-2,5.7065774E-2,1.6819644E0,-4.0580258E-2,-7.031502E-2,5.658648E-2,-1.4142525E-1,8.068459E-2,4.6624053E-1,2.64376E0,1.8388929E0,2.031919E-1,-7.67954E-2,-1.3500904E-1,-1.0935229E-1,7.50785E-2,1.7895088E-2,2.6624545E-1,-2.267344E-2,2.1396975E-1,2.5647575E-1,7.931718E-2,8.7080844E-2,2.1359883E-1,2.6515538E-1,2.1141843E-1,2.2859395E-1,2.950438E-1,9.343232E-3,-1.0979843E-1,2.075912E0,-1.7904688E-1,1.040915E0,2.5129762E-1,5.4609448E-2,5.817013E-2,2.0142703E-1,3.621774E-1,7.0770554E-2,-2.557237E-1,3.578827E-1,2.153338E-1,-7.668013E-2,1.740015E-1,2.850692E-1,1.7899626E-1,1.4563917E-1,3.7126073E-1,2.817466E-1,3.5129616E-1,3.1599578E-1,4.5081982E-1,3.574772E-1,2.517579E-1,2.8619862E-1,1.3302188E-1,1.3691509E-1,2.8567824E-1,8.13564E-2,2.8930923E-1],"split_indices":[0,3,0,1,3,4,0,1,1,0,3,4,4,4,0,1,0,3,1,2,4,2,0,0,3,3,0,0,0,0,0,2,3,4,0,4,0,3,0,0,0,0,0,0,0,1,0,0,0,0,0,0,0,0,0,0,0,0,0,0,0,0,0],"split_type":[0,0,0,0,0,0,0,0,0,0,0,0,0,0,0,0,0,0,0,0,0,0,0,0,0,0,0,0,0,0,0,0,0,0,0,0,0,0,0,0,0,0,0,0,0,0,0,0,0,0,0,0,0,0,0,0,0,0,0,0,0,0,0],"sum_hessian":[4.432E3,4.035E3,3.97E2,3.687E3,3.48E2,2.47E2,1.5E2,3.97E2,3.29E3,1.77E2,1.71E2,1.34E2,1.13E2,1.16E2,3.4E1,1.41E2,2.56E2,2.961E3,3.29E2,2.6E1,1.51E2,1.33E2,3.8E1,1.9E1,1.15E2,9.2E1,2.1E1,8.2E1,3.4E1,4.6E1,9.5E1,3.2E1,2.24E2,2.44E2,2.717E3,2.45E2,8.4E1,2.5E1,1E0,6E0,1.45E2,1E0,1.32E2,1.08E2,7E0,8.6E1,6E0,2.1E1,1.1E1,2E0,2.22E2,1.37E2,1.07E2,2.11E2,2.506E3,2.19E2,2.6E1,2.2E1,3E0,3E0,1.29E2,1E0,8.5E1],"tree_param":{"num_deleted":"0","num_feature":"5","num_nodes":"63","size_leaf_vector":"0"}},{"base_weights":[7.427605E0,7.678268E0,5.841048E0,6.3397694E0,7.905421E0,6.472619E0,4.9911814E0,5.2433515E0,6.639569E0,4.362414E0,8.005594E0,7.072456E0,5.779588E0,5.265953E0,4.2554903E0,6.8355947E0,4.1268315E0,5.2238092E0,6.914548E0,1.8058847E0,5.0931354E0,6.0169225E0,8.174985E0,5.3226795E0,7.515545E0,5.9355965E0,4.063067E0,5.8341403E0,4.6483154E0,3.984281E0,7.833764E0,2.9341142E0,4.927578E0,6.1862785E-1,5.341504E0,7.257454E0,5.204494E0,3.2221706E0,9.301399E-1,6.3992205E0,4.4554706E0,4.84986E0,6.548205E0,8.357417E0,6.062472E0,3.5319512E0,5.7286344E0,7.58443E0,3.2429006E0,6.019462E0,3.3624232E0,4.318199E0,6.0673165E0,4.8410516E0,3.554886E0,8.184867E0,2.978722E0,3.8701465E0,1.9390792E0,2.659513E0,5.6949925E0,1.8598652E-1,7.419553E-1,3.0606666E0,5.6144238E0,7.514288E0,5.7578783E0,2.2098434E0,5.5928392E0,1.0271419E0,4.0659904E-1,3.6059291E0,4.9299517E0,8.725996E0,6.953896E0,6.625071E0,4.7908807E0,6.0459213E0,3.3989515E0,1.7642951E0,7.61382E0,2.304961E0,6.0555468E0,6.2525015E0,4.1642895E0],"categories":[],"categories_nodes":[],"categories_segments":[],"categories_sizes":[],"default_left":[1,1,1,1,1,1,1,1,1,1,1,1,1,1,0,1,1,1,1,1,1,1,1,1,1,1,0,1,1,0,1,1,1,1,1,1,1,0,1,0,1,0,0,1,1,0,1,1,0,1,0,0,1,0,0,0,0,0,0,0,0,0,0,0,0,0,0,0,0,0,0,0,0,0,0,0,0,0,0,0,0,0,0,0,0],"id":17,"left_children":[1,3,5,7,9,11,13,15,17,19,21,23,25,27,-1,29,31,33,35,37,39,41,43,45,47,49,-1,51,53,-1,55,57,59,61,63,65,67,-1,69,-1,71,-1,-1,73,75,-1,77,79,-1,81,-1,-1,83,-1,-1,-1,-1,-1,-1,-1,-1,-1,-1,-1,-1,-1,-1,-1,-1,-1,-1,-1,-1,-1,-1,-1,-1,-1,-1,-1,-1,-1,-1,-1,-1],"loss_changes":[1.7181406E3,1.1128438E3,2.9457617E2,1.4925977E2,1.1242344E3,1.0295801E2,3.0957031E1,1.9401196E2,1.3361719E2,1.6266858E2,1.0203594E3,1.00328125E2,2.0336426E1,3.8856445E1,0E0,1.1109302E2,5.812683E1,3.734619E1,1.745E2,2.4289635E1,3.0620483E1,1.2511133E2,1.0758281E3,8.844971E0,1.7197266E1,1.2130371E1,0E0,7.0273438E0,2.8112793E0,0E0,3.698584E1,2.323117E1,6.143811E1,2.2075891E-2,2.8257568E1,7.1890625E1,6.207007E1,0E0,3.4413242E-1,0E0,2.7806396E0,0E0,0E0,1.3298281E3,1.3709375E2,0E0,2.364746E0,1.0344727E1,0E0,5.3432617E0,0E0,0E0,1.8032227E0,0E0,0E0,0E0,0E0,0E0,0E0,0E0,0E0,0E0,0E0,0E0,0E0,0E0,0E0,0E0,0E0,0E0,0E0,0E0,0E0,0E0,0E0,0E0,0E0,0E0,0E0,0E0,0E0,0E0,0E0,0E0,0E0],"parents":[2147483647,0,0,1,1,2,2,3,3,4,4,5,5,6,6,7,7,8,8,9,9,10,10,11,11,12,12,13,13,15,15,16,16,17,17,18,18,19,19,20,20,21,21,22,22,23,23,24,24,25,25,27,27,28,28,30,30,31,31,32,32,33,33,34,34,35,35,36,36,38,38,40,40,43,43,44,44,46,46,47,47,49,49,52,52],"right_children":[2,4,6,8,10,12,14,16,18,20,22,24,26,28,-1,30,32,34,36,38,40,42,44,46,48,50,-1,52,54,-1,56,58,60,62,64,66,68,-1,70,-1,72,-1,-1,74,76,-1,78,80,-1,82,-1,-1,84,-1,-1,-1,-1,-1,-1,-1,-1,-1,-1,-1,-1,-1,-1,-1,-1,-1,-1,-1,-1,-1,-1,-1,-1,-1,-1,-1,-1,-1,-1,-1,-1],"split_conditions":[-1.073062E-1,-1.2463346E-1,-6.8780124E-2,-2.1081668E-1,2.778747E-1,1.5813097E0,-4.686909E-2,3.2281128E-1,-4.2014837E-2,1.7317247E-1,-6.020831E-2,5.250959E-1,2.8372235E0,1.5186714E0,2.1277452E-1,1.16660014E-1,2.0875096E0,-9.731567E-2,4.4329192E-2,-1.06079996E-1,-9.6719995E-2,-7.56212E-2,6.2316403E-2,2.825016E-1,6.6829786E-2,8.413078E-2,2.0315336E-1,5.635017E-1,2.4893415E0,1.9921406E-1,4.955735E-2,4.6887308E-1,-2.4732591E-1,-1.3491708E-1,-1.8546556E-1,3.0855007E-2,-1.8615337E-1,1.6110854E-1,-3.12E-3,3.1996104E-1,2.0265345E-1,2.4249302E-1,3.2741025E-1,1.9436214E0,7.5379394E-2,1.7659757E-1,7.311875E-2,-2.3966044E-2,1.6214503E-1,-7.2854385E-2,1.6812116E-1,2.1590996E-1,7.931718E-2,2.4205258E-1,1.7774431E-1,4.0924335E-1,1.4893611E-1,1.9350733E-1,9.695396E-2,1.3297565E-1,2.8474963E-1,9.299326E-3,3.7097763E-2,1.5303333E-1,2.807212E-1,3.757144E-1,2.8789392E-1,1.1049217E-1,2.7964196E-1,5.1357098E-2,2.0329952E-2,1.8029647E-1,2.4649759E-1,4.362998E-1,3.476948E-1,3.3125356E-1,2.3954403E-1,3.0229607E-1,1.6994758E-1,8.8214755E-2,3.8069102E-1,1.1524805E-1,3.0277735E-1,3.1262508E-1,2.0821448E-1],"split_indices":[0,0,0,0,4,4,0,4,1,4,1,4,4,4,0,4,4,3,1,3,3,1,1,4,3,3,0,4,4,0,3,4,0,0,0,3,0,0,3,0,4,0,0,4,1,0,3,2,0,1,0,0,3,0,0,0,0,0,0,0,0,0,0,0,0,0,0,0,0,0,0,0,0,0,0,0,0,0,0,0,0,0,0,0,0],"split_type":[0,0,0,0,0,0,0,0,0,0,0,0,0,0,0,0,0,0,0,0,0,0,0,0,0,0,0,0,0,0,0,0,0,0,0,0,0,0,0,0,0,0,0,0,0,0,0,0,0,0,0,0,0,0,0,0,0,0,0,0,0,0,0,0,0,0,0,0,0,0,0,0,0,0,0,0,0,0,0,0,0,0,0,0,0],"sum_hessian":[4.432E3,3.824E3,6.08E2,5.59E2,3.265E3,3.45E2,2.63E2,1.24E2,4.35E2,9.1E1,3.174E3,1.8E2,1.65E2,1.87E2,7.6E1,4.9E1,7.5E1,7.4E1,3.61E2,2.1E1,7E1,2.52E2,2.922E3,3.9E1,1.41E2,1.49E2,1.6E1,9.3E1,9.4E1,1.4E1,3.5E1,3.2E1,4.3E1,2E0,7.2E1,2.98E2,6.3E1,7E0,1.4E1,2E1,5E1,8.2E1,1.7E2,2.687E3,2.35E2,9E0,3E1,1.38E2,3E0,1.43E2,6E0,1.5E1,7.8E1,7.7E1,1.7E1,3.2E1,3E0,1.5E1,1.7E1,1.2E1,3.1E1,1E0,1E0,9E0,6.3E1,2.51E2,4.7E1,8E0,5.5E1,1.1E1,3E0,2.1E1,2.9E1,2.124E3,5.63E2,1.6E2,7.5E1,2.5E1,5E0,1E0,1.37E2,2E0,1.41E2,6.9E1,9E0],"tree_param":{"num_deleted":"0","num_feature":"5","num_nodes":"85","size_leaf_vector":"0"}},{"base_weights":[7.0583324E0,7.245105E0,5.146598E0,7.3880854E0,5.2932534E0,5.569501E0,4.309465E0,5.908527E0,7.564048E0,5.64989E0,4.1259565E0,6.1276565E0,4.8833427E0,4.4294214E0,3.3802507E0,4.951827E0,6.4081435E0,7.750737E0,5.840813E0,3.2528017E0,5.7405877E0,1.1077392E0,4.154052E0,4.8159366E0,6.35753E0,4.980232E0,3.1134825E0,4.676949E0,3.7544425E0,4.1089315E0,5.321693E0,4.5960283E0,6.658213E0,5.987683E0,7.9807553E0,6.4315124E0,4.8734846E0,3.3987124E0,9.6980333E-1,6.215033E0,5.194503E0,6.467569E0,3.7201273E0,5.1684694E0,3.9004924E0,5.2367177E0,3.1089602E0,2.5796566E0,6.6828923E0,5.300417E0,6.774358E0,8.25708E0,6.292349E0,6.6456122E0,4.6412954E0,5.243124E0,4.003676E0,1.821237E0,6.284007E0,4.6499777E0,5.926966E0],"categories":[],"categories_nodes":[],"categories_segments":[],"categories_sizes":[],"default_left":[1,1,1,1,1,1,1,1,1,1,1,1,1,1,0,1,1,1,1,1,1,0,0,0,1,1,0,0,0,0,0,1,1,1,1,1,1,0,0,1,1,0,0,0,0,0,0,0,0,0,0,0,0,0,0,0,0,0,0,0,0],"id":18,"left_children":[1,3,5,7,9,11,13,15,17,19,21,23,25,27,-1,29,31,33,35,37,39,-1,-1,-1,41,43,-1,-1,-1,-1,-1,45,47,49,51,53,55,-1,-1,57,59,-1,-1,-1,-1,-1,-1,-1,-1,-1,-1,-1,-1,-1,-1,-1,-1,-1,-1,-1,-1],"loss_changes":[1.5455469E3,1.08725E3,1.1690039E2,9.336875E2,9.283545E1,7.003516E1,4.0966797E-1,1.6137402E2,1.0340781E3,2.7200684E1,1.2496338E0,1.159668E1,5.414795E0,2.322754E0,0E0,2.2714844E1,8.812402E1,1.1785469E3,1.5836133E2,3.5057068E-2,2.0051758E1,0E0,0E0,0E0,9.60498E0,3.010498E0,0E0,0E0,0E0,0E0,0E0,1.706549E1,5.7109375E0,1.5494531E2,1.1946719E3,4.696289E1,2.080542E1,0E0,0E0,1.9770264E1,1.2324463E1,0E0,0E0,0E0,0E0,0E0,0E0,0E0,0E0,0E0,0E0,0E0,0E0,0E0,0E0,0E0,0E0,0E0,0E0,0E0,0E0],"parents":[2147483647,0,0,1,1,2,2,3,3,4,4,5,5,6,6,7,7,8,8,9,9,10,10,11,11,12,12,13,13,15,15,16,16,17,17,18,18,19,19,20,20,24,24,25,25,31,31,32,32,33,33,34,34,35,35,36,36,39,39,40,40],"right_children":[2,4,6,8,10,12,14,16,18,20,22,24,26,28,-1,30,32,34,36,38,40,-1,-1,-1,42,44,-1,-1,-1,-1,-1,46,48,50,52,54,56,-1,-1,58,60,-1,-1,-1,-1,-1,-1,-1,-1,-1,-1,-1,-1,-1,-1,-1,-1,-1,-1,-1,-1],"split_conditions":[-8.323887E-2,4.4157855E-2,-5.402396E-2,-5.332517E-2,7.2933145E-2,1.6797874E0,-3.7659906E-2,-7.031502E-2,5.658648E-2,-1.7911774E-1,-5.3249285E-2,5.3060865E-1,9.067801E-2,1.7760501E0,1.6901253E-1,-7.67954E-2,-1.3500904E-1,-9.424907E-2,7.250784E-2,-1.8130496E-1,5.7065774E-2,5.538696E-2,2.0770259E-1,2.4079683E-1,7.931718E-2,2.64376E0,1.5567413E-1,2.3384745E-1,1.8772213E-1,2.0544659E-1,2.6608464E-1,9.343232E-3,-1.0979843E-1,-1.1840995E-1,2.2539277E0,1.0364962E0,7.8286484E-2,1.6993563E-1,4.8490167E-2,-6.2255986E-2,1.9823878E0,3.2337844E-1,1.8600637E-1,2.5842348E-1,1.9502462E-1,2.618359E-1,1.55448E-1,1.2898283E-1,3.3414462E-1,2.6502085E-1,3.387179E-1,4.1285402E-1,3.1461746E-1,3.322806E-1,2.3206477E-1,2.6215622E-1,2.001838E-1,9.106185E-2,3.1420037E-1,2.3249888E-1,2.963483E-1],"split_indices":[0,3,0,1,3,4,0,1,1,0,1,4,3,4,0,1,0,3,1,0,3,0,0,0,3,4,0,0,0,0,0,2,3,3,4,4,1,0,0,1,4,0,0,0,0,0,0,0,0,0,0,0,0,0,0,0,0,0,0,0,0],"split_type":[0,0,0,0,0,0,0,0,0,0,0,0,0,0,0,0,0,0,0,0,0,0,0,0,0,0,0,0,0,0,0,0,0,0,0,0,0,0,0,0,0,0,0,0,0,0,0,0,0,0,0,0,0,0,0,0,0,0,0,0,0],"sum_hessian":[4.432E3,4.035E3,3.97E2,3.757E3,2.78E2,2.6E2,1.37E2,4.03E2,3.354E3,2.1E2,6.8E1,1.39E2,1.21E2,1.18E2,1.9E1,1.42E2,2.61E2,3.023E3,3.31E2,9E0,2.01E2,1E0,6.7E1,2.4E1,1.15E2,1.13E2,8E0,8.2E1,3.6E1,4.7E1,9.5E1,3.4E1,2.27E2,3.52E2,2.671E3,2.02E2,1.29E2,8E0,1E0,1.02E2,9.9E1,1.09E2,6E0,9.3E1,2E1,2.2E1,1.2E1,2E0,2.25E2,1.92E2,1.6E2,2.292E3,3.79E2,1.78E2,2.4E1,8.7E1,4.2E1,2E0,1E2,6.1E1,3.8E1],"tree_param":{"num_deleted":"0","num_feature":"5","num_nodes":"61","size_leaf_vector":"0"}},{"base_weights":[6.7070117E0,6.9335084E0,5.273423E0,5.679606E0,7.146384E0,5.8433204E0,4.506537E0,4.828189E0,6.044595E0,3.8168924E0,7.2406096E0,6.394128E0,5.2075405E0,4.7490315E0,3.8197396E0,6.2178926E0,4.1453156E0,4.4960194E0,6.2815022E0,1.3825116E0,4.5174484E0,5.4301414E0,7.3948374E0,4.777356E0,6.8045273E0,5.4218626E0,4.0993023E0,5.2736115E0,4.1974034E0,3.4578493E0,7.1664624E0,2.9813886E0,4.945533E0,2.2741096E0,4.7726703E0,6.5910683E0,4.7579675E0,2.840095E0,5.1296633E-1,5.821257E0,3.8920085E0,4.673016E0,6.121696E0,7.5611215E0,5.38663E0,2.6668384E0,5.071364E0,6.8665843E0,2.9469178E0,5.498571E0,2.8434267E0,3.8926425E0,5.486547E0,4.365871E0,3.2061107E0,1.4120592E0,3.6492436E0,7.4513574E0,2.7395685E0,4.430235E0,1.982691E0,2.0693948E0,5.576254E0,6.714034E-1,2.407153E0,4.895063E0,1.3050972E0,6.7704163E0,4.7671604E0,6.2744308E0,3.7805276E0,8.40662E-1,2.6505232E-1,3.075556E0,4.3610067E0,3.8620589E0,5.036849E0,7.7578406E0,5.4768696E0,6.19094E0,4.5350695E0,1.2962825E0,5.146479E0,1.5508287E0,6.8938665E0,2.0644882E0,5.5358086E0,5.5418143E0,2.2391617E0],"categories":[],"categories_nodes":[],"categories_segments":[],"categories_sizes":[],"default_left":[1,1,1,1,1,1,1,1,1,1,1,1,1,1,0,1,1,1,1,1,1,1,1,1,1,1,0,1,1,1,1,1,1,1,1,1,1,0,1,0,1,1,0,1,1,0,1,1,0,1,0,0,1,0,0,0,0,0,0,0,0,0,0,0,0,0,0,0,0,0,0,0,0,0,0,0,0,0,0,0,0,0,0,0,0,0,0,0,0],"id":19,"left_children":[1,3,5,7,9,11,13,15,17,19,21,23,25,27,-1,29,31,33,35,37,39,41,43,45,47,49,-1,51,53,55,57,59,61,63,65,67,69,-1,71,-1,73,75,-1,77,79,-1,81,83,-1,85,-1,-1,87,-1,-1,-1,-1,-1,-1,-1,-1,-1,-1,-1,-1,-1,-1,-1,-1,-1,-1,-1,-1,-1,-1,-1,-1,-1,-1,-1,-1,-1,-1,-1,-1,-1,-1,-1,-1],"loss_changes":[1.4028438E3,9.8040625E2,2.3982812E2,1.4483984E2,9.9696875E2,8.7868164E1,2.5827637E1,1.3840063E2,1.14103516E2,1.506532E2,8.463906E2,8.758984E1,1.7202637E1,3.3135254E1,0E0,1.192146E2,9.609131E1,2.295459E1,1.2616406E2,2.6426685E1,3.5240845E1,1.03862305E2,9.3534375E2,1.1295837E1,1.3758301E1,1.1264404E1,0E0,6.2841797E0,2.3686523E0,1.111908E0,3.0034424E1,6.501117E1,1.1362927E2,8.966446E-2,1.3982788E1,5.768164E1,6.521448E1,0E0,9.957862E-1,0E0,6.11615E0,1.7428955E1,0E0,1.0633125E3,1.2740039E2,0E0,2.9699097E0,9.467285E0,0E0,5.3234863E0,0E0,0E0,1.7695312E0,0E0,0E0,0E0,0E0,0E0,0E0,0E0,0E0,0E0,0E0,0E0,0E0,0E0,0E0,0E0,0E0,0E0,0E0,0E0,0E0,0E0,0E0,0E0,0E0,0E0,0E0,0E0,0E0,0E0,0E0,0E0,0E0,0E0,0E0,0E0,0E0],"parents":[2147483647,0,0,1,1,2,2,3,3,4,4,5,5,6,6,7,7,8,8,9,9,10,10,11,11,12,12,13,13,15,15,16,16,17,17,18,18,19,19,20,20,21,21,22,22,23,23,24,24,25,25,27,27,28,28,29,29,30,30,31,31,32,32,33,33,34,34,35,35,36,36,38,38,40,40,41,41,43,43,44,44,46,46,47,47,49,49,52,52],"right_children":[2,4,6,8,10,12,14,16,18,20,22,24,26,28,-1,30,32,34,36,38,40,42,44,46,48,50,-1,52,54,56,58,60,62,64,66,68,70,-1,72,-1,74,76,-1,78,80,-1,82,84,-1,86,-1,-1,88,-1,-1,-1,-1,-1,-1,-1,-1,-1,-1,-1,-1,-1,-1,-1,-1,-1,-1,-1,-1,-1,-1,-1,-1,-1,-1,-1,-1,-1,-1,-1,-1,-1,-1,-1,-1],"split_conditions":[-1.073062E-1,-1.2463346E-1,-6.8780124E-2,-1.9582656E-1,2.778747E-1,1.5813097E0,-4.6641573E-2,3.275196E-1,-4.780134E-2,1.7317247E-1,-6.020831E-2,5.250959E-1,2.7108374E0,1.5186714E0,1.9098698E-1,1.16660014E-1,1.9460757E0,-1.768361E-1,4.4329192E-2,-1.06079996E-1,-9.6719995E-2,-7.0680216E-2,3.8882546E-2,2.6459813E-1,6.6829786E-2,8.413078E-2,2.0496511E-1,5.635017E-1,2.4893415E0,-1.500698E-2,4.955735E-2,4.7678256E-1,-2.4732591E-1,-1.908043E-1,5.3096678E-2,4.356891E-2,7.0880306E-1,1.4200476E-1,-6.640615E-2,2.9106286E-1,2.0265345E-1,-7.681173E-2,3.060848E-1,6.2316403E-2,5.701289E-2,1.3334192E-1,-7.661591E-2,-2.3966044E-2,1.4734589E-1,-7.2854385E-2,1.4217134E-1,1.9463213E-1,9.532279E-2,2.1829355E-1,1.6030554E-1,7.060296E-2,1.8246219E-1,3.7256786E-1,1.3697843E-1,2.2151175E-1,9.913456E-2,1.03469744E-1,2.788127E-1,3.357017E-2,1.2035765E-1,2.4475315E-1,6.525486E-2,3.3852082E-1,2.3835802E-1,3.1372154E-1,1.8902639E-1,4.2033102E-2,1.3252616E-2,1.5377781E-1,2.1805035E-1,1.9310294E-1,2.5184247E-1,3.8789204E-1,2.738435E-1,3.09547E-1,2.2675347E-1,6.481413E-2,2.5732395E-1,7.754143E-2,3.4469333E-1,1.0322441E-1,2.7679044E-1,2.7709073E-1,1.1195809E-1],"split_indices":[0,0,0,0,4,4,0,4,1,4,1,4,4,4,0,4,4,0,1,3,3,1,3,4,3,3,0,4,4,2,3,4,0,0,3,3,4,0,3,0,4,1,0,1,3,0,1,2,0,1,0,0,3,0,0,0,0,0,0,0,0,0,0,0,0,0,0,0,0,0,0,0,0,0,0,0,0,0,0,0,0,0,0,0,0,0,0,0,0],"split_type":[0,0,0,0,0,0,0,0,0,0,0,0,0,0,0,0,0,0,0,0,0,0,0,0,0,0,0,0,0,0,0,0,0,0,0,0,0,0,0,0,0,0,0,0,0,0,0,0,0,0,0,0,0,0,0,0,0,0,0,0,0,0,0,0,0,0,0,0,0,0,0,0,0,0,0,0,0,0,0,0,0,0,0,0,0,0,0,0,0],"sum_hessian":[4.432E3,3.824E3,6.08E2,5.59E2,3.265E3,3.45E2,2.63E2,1.72E2,3.87E2,9.1E1,3.174E3,1.8E2,1.65E2,1.9E2,7.3E1,5.4E1,1.18E2,5.4E1,3.33E2,2.1E1,7E1,2.52E2,2.922E3,3.9E1,1.41E2,1.35E2,3E1,9.3E1,9.7E1,1.5E1,3.9E1,5E1,6.8E1,7E0,4.7E1,2.74E2,5.9E1,7E0,1.4E1,2E1,5E1,1.24E2,1.28E2,2.696E3,2.26E2,6E0,3.3E1,1.38E2,3E0,1.3E2,5E0,1.5E1,7.8E1,8E1,1.7E1,2E0,1.3E1,3.6E1,3E0,1.9E1,3.1E1,1.3E1,5.5E1,1E0,6E0,4.5E1,2E0,2.47E2,2.7E1,2.1E1,3.8E1,5E0,9E0,2.1E1,2.9E1,4.2E1,8.2E1,2.461E3,2.35E2,1.13E2,1.13E2,1E0,3.2E1,1E0,1.37E2,2E0,1.28E2,7.6E1,2E0],"tree_param":{"num_deleted":"0","num_feature":"5","num_nodes":"89","size_leaf_vector":"0"}},{"base_weights":[6.3736296E0,6.615736E0,5.156447E0,5.400999E0,6.830612E0,5.627627E0,4.2855783E0,4.5952506E0,5.746343E0,4.0264034E0,6.9283743E0,5.9745584E0,4.7410274E0,4.6488266E0,3.85084E0,5.920863E0,3.943957E0,4.4917326E0,6.0179896E0,1.2979174E0,4.557679E0,4.977458E0,7.065324E0,3.353284E0,6.1197176E0,5.0407495E0,4.0677876E0,4.874007E0,3.5342238E0,3.3007736E0,6.8208776E0,2.8386064E0,4.7037964E0,2.3116224E0,4.8010893E0,6.342326E0,4.528448E0,2.6446803E0,4.728976E-1,5.906558E0,4.0615487E0,3.668661E0,5.287967E0,4.531202E0,7.188749E0,1.1078382E0,3.684372E0,6.3112993E0,4.0573826E0,5.1425204E0,2.7249508E0,4.96813E0,3.0176291E0,1.3649902E0,3.4798148E0,7.0888586E0,2.6368346E0,4.219799E0,1.8866546E0,1.9733157E0,5.30242E0,3.1349354E0,8.709049E-2,2.196501E0,4.987752E0,4.555094E0,6.549671E0,5.9749694E0,3.5963476E0,7.352419E-1,2.1702719E-1,2.928768E0,4.4961243E0,4.800247E0,5.710404E0,3.327023E0,5.4626036E0,7.37107E0,5.184473E0,1.1559582E-1,1.4000536E0,3.1337674E0,6.3558936E0,1.2130013E0,4.2172313E0,1.3480017E0,5.170968E0],"categories":[],"categories_nodes":[],"categories_segments":[],"categories_sizes":[],"default_left":[1,1,1,1,1,1,1,1,1,1,1,1,1,1,0,1,1,1,1,1,1,1,1,1,1,1,0,1,0,1,1,1,1,1,1,1,1,0,1,0,1,0,1,1,1,1,0,1,1,1,0,0,0,0,0,0,0,0,0,0,0,0,0,0,0,0,0,0,0,0,0,0,0,0,0,0,0,0,0,0,0,0,0,0,0,0,0],"id":20,"left_children":[1,3,5,7,9,11,13,15,17,19,21,23,25,27,-1,29,31,33,35,37,39,41,43,45,47,49,-1,51,-1,53,55,57,59,61,63,65,67,-1,69,-1,71,-1,73,75,77,79,-1,81,83,85,-1,-1,-1,-1,-1,-1,-1,-1,-1,-1,-1,-1,-1,-1,-1,-1,-1,-1,-1,-1,-1,-1,-1,-1,-1,-1,-1,-1,-1,-1,-1,-1,-1,-1,-1,-1,-1],"loss_changes":[1.2722344E3,9.273125E2,2.795293E2,1.2941992E2,8.315469E2,1.18396484E2,2.3788086E1,1.26010254E2,1.05203125E2,1.5063904E2,7.7384375E2,1.0846973E2,7.543213E0,1.7661621E1,0E0,1.0718225E2,8.6594604E1,3.813513E1,1.2394336E2,1.9860352E1,3.6240112E1,6.2691895E1,8.516406E2,1.0787125E1,1.0082617E2,7.6696777E0,0E0,4.7521973E0,0E0,7.9545593E-1,2.6157593E1,5.909497E1,1.0231909E2,1.9873325E1,1.9673828E1,6.540234E1,5.9410156E1,0E0,7.1307254E-1,0E0,2.0799072E1,0E0,5.7597656E0,1.3211646E2,9.462344E2,9.979539E-1,0E0,2.1316406E1,8.524628E0,2.4208984E0,0E0,0E0,0E0,0E0,0E0,0E0,0E0,0E0,0E0,0E0,0E0,0E0,0E0,0E0,0E0,0E0,0E0,0E0,0E0,0E0,0E0,0E0,0E0,0E0,0E0,0E0,0E0,0E0,0E0,0E0,0E0,0E0,0E0,0E0,0E0,0E0,0E0],"parents":[2147483647,0,0,1,1,2,2,3,3,4,4,5,5,6,6,7,7,8,8,9,9,10,10,11,11,12,12,13,13,15,15,16,16,17,17,18,18,19,19,20,20,21,21,22,22,23,23,24,24,25,25,27,27,29,29,30,30,31,31,32,32,33,33,34,34,35,35,36,36,38,38,40,40,42,42,43,43,44,44,45,45,47,47,48,48,49,49],"right_children":[2,4,6,8,10,12,14,16,18,20,22,24,26,28,-1,30,32,34,36,38,40,42,44,46,48,50,-1,52,-1,54,56,58,60,62,64,66,68,-1,70,-1,72,-1,74,76,78,80,-1,82,84,86,-1,-1,-1,-1,-1,-1,-1,-1,-1,-1,-1,-1,-1,-1,-1,-1,-1,-1,-1,-1,-1,-1,-1,-1,-1,-1,-1,-1,-1,-1,-1,-1,-1,-1,-1,-1,-1],"split_conditions":[-1.2295417E-1,-1.2463346E-1,-6.8780124E-2,-1.9582656E-1,3.456E-1,2.152523E0,-5.282974E-2,3.275196E-1,-4.2014837E-2,1.584E-1,-6.4896E-2,2.870666E-1,2.6569004E0,2.2704182E0,1.92542E-1,1.16660014E-1,1.9460757E0,-7.030557E-2,4.4329192E-2,-1.06079996E-1,-1.02960005E-1,-7.681173E-2,-1.15439996E-1,1.7379361E-1,5.7332363E-2,8.373293E-2,2.0338939E-1,9.473816E-2,1.7671119E-1,-1.500698E-2,4.955735E-2,4.7678256E-1,-2.4732591E-1,-4.654784E-2,-1.8546556E-1,2.7356303E-1,7.0880306E-1,1.3223402E-1,-3.12E-2,2.953279E-1,2.0712894E-1,1.8343306E-1,-7.1552E-2,2.0928001E0,6.1568E-2,-1.2179364E-1,1.842186E-1,-1.4321071E-1,-1.204368E-1,-7.8459814E-2,1.3624755E-1,2.4840651E-1,1.5088145E-1,6.8249516E-2,1.7399074E-1,3.5444292E-1,1.3184173E-1,2.1098995E-1,9.433273E-2,9.866579E-2,2.65121E-1,1.5674677E-1,4.354525E-3,1.0982505E-1,2.493876E-1,2.277547E-1,3.2748356E-1,2.9874846E-1,1.7981738E-1,3.6762096E-2,1.085136E-2,1.464384E-1,2.2480622E-1,2.4001236E-1,2.855202E-1,1.6635115E-1,2.7313018E-1,3.685535E-1,2.5922367E-1,5.779791E-3,7.000268E-2,1.5668838E-1,3.1779468E-1,6.065006E-2,2.1086156E-1,6.740009E-2,2.585484E-1],"split_indices":[0,0,0,0,4,4,0,4,1,4,1,4,4,4,0,4,4,3,1,3,3,1,3,4,3,3,0,3,0,2,3,4,0,1,0,4,4,0,3,0,4,0,1,4,1,0,0,3,0,1,0,0,0,0,0,0,0,0,0,0,0,0,0,0,0,0,0,0,0,0,0,0,0,0,0,0,0,0,0,0,0,0,0,0,0,0,0],"split_type":[0,0,0,0,0,0,0,0,0,0,0,0,0,0,0,0,0,0,0,0,0,0,0,0,0,0,0,0,0,0,0,0,0,0,0,0,0,0,0,0,0,0,0,0,0,0,0,0,0,0,0,0,0,0,0,0,0,0,0,0,0,0,0,0,0,0,0,0,0,0,0,0,0,0,0,0,0,0,0,0,0,0,0,0,0,0,0],"sum_hessian":[4.432E3,3.693E3,7.39E2,5.59E2,3.134E3,4.76E2,2.63E2,1.72E2,3.87E2,1.07E2,3.027E3,3.38E2,1.38E2,1.38E2,1.25E2,5.4E1,1.18E2,7.2E1,3.15E2,1.8E1,8.9E1,2.01E2,2.826E3,1.9E1,3.19E2,9.1E1,4.7E1,1.12E2,2.6E1,1.5E1,3.9E1,5E1,6.8E1,1E1,6.2E1,2.56E2,5.9E1,6E0,1.2E1,2.1E1,6.8E1,4.1E1,1.6E2,1.33E2,2.693E3,3E0,1.6E1,2.9E2,2.9E1,8.6E1,5E0,1.05E2,7E0,2E0,1.3E1,3.6E1,3E0,1.9E1,3.1E1,1.3E1,5.5E1,7E0,3E0,5E0,5.7E1,2.9E1,2.27E2,2.1E1,3.8E1,5E0,7E0,2.1E1,4.7E1,8E1,8E1,6E1,7.3E1,2.466E3,2.27E2,1E0,2E0,5E0,2.85E2,2E0,2.7E1,1E0,8.5E1],"tree_param":{"num_deleted":"0","num_feature":"5","num_nodes":"87","size_leaf_vector":"0"}},{"base_weights":[6.056756E0,6.197577E0,4.1572614E0,6.330612E0,4.55713E0,4.5621805E0,3.4724138E0,5.2070765E0,6.5100102E0,4.9523764E0,3.7385607E0,2.5986774E0,4.6338162E0,3.6434238E0,2.9163444E0,4.5342126E0,5.641394E0,3.3096967E0,6.592984E0,5.4473248E0,4.2941694E0,2.5008004E0,4.679683E0,5.905239E0,3.9830847E0,1.1379426E0,5.724352E0,1.2678559E0,3.9598653E0,5.035337E0,6.758325E0,4.2215834E0,5.6609383E0,4.4876885E0,3.2940843E0,4.6994467E0,1.9603325E0,3.3398054E0,6.703914E0,3.4470243E0,5.38952E0,1.9383423E0,5.3057194E-2,4.2443614E0,5.9514985E0,2.607915E0,4.6863392E-1,5.276729E0,3.2413652E0,3.943614E0,5.4350905E0,6.919716E0,4.707849E0,1.3143017E0,4.5124764E0],"categories":[],"categories_nodes":[],"categories_segments":[],"categories_sizes":[],"default_left":[1,1,1,1,1,1,1,1,1,1,0,0,1,0,0,1,1,1,1,1,1,0,1,1,1,1,1,1,1,1,1,0,0,1,0,0,0,0,0,0,0,0,0,0,0,0,0,0,0,0,0,0,0,0,0],"id":21,"left_children":[1,3,5,7,9,11,13,15,17,19,-1,-1,21,-1,-1,23,25,27,29,31,33,-1,35,37,39,41,43,45,47,49,51,-1,-1,53,-1,-1,-1,-1,-1,-1,-1,-1,-1,-1,-1,-1,-1,-1,-1,-1,-1,-1,-1,-1,-1],"loss_changes":[1.1600156E3,8.71375E2,6.984619E1,7.3465625E2,8.275195E1,1.4823486E1,6.906738E-1,1.2930566E2,8.5021875E2,4.4370117E1,0E0,0E0,6.2009277E0,0E0,0E0,1.3742432E2,1.1229004E2,1.07820435E2,7.9009375E2,6.2128906E0,3.409546E0,0E0,3.5424805E-1,9.849805E1,9.828223E1,5.9755507E0,7.962598E1,2.2339947E1,4.3450867E1,1.1429297E2,9.238125E2,0E0,0E0,4.748535E-2,0E0,0E0,0E0,0E0,0E0,0E0,0E0,0E0,0E0,0E0,0E0,0E0,0E0,0E0,0E0,0E0,0E0,0E0,0E0,0E0,0E0],"parents":[2147483647,0,0,1,1,2,2,3,3,4,4,5,5,6,6,7,7,8,8,9,9,12,12,15,15,16,16,17,17,18,18,19,19,20,20,22,22,23,23,24,24,25,25,26,26,27,27,28,28,29,29,30,30,33,33],"right_children":[2,4,6,8,10,12,14,16,18,20,-1,-1,22,-1,-1,24,26,28,30,32,34,-1,36,38,40,42,44,46,48,50,52,-1,-1,54,-1,-1,-1,-1,-1,-1,-1,-1,-1,-1,-1,-1,-1,-1,-1,-1,-1,-1,-1,-1,-1],"split_conditions":[5.1324997E-2,-8.323887E-2,7.471553E-2,-1.2463346E-1,-5.478549E-2,-1.7296258E-1,9.354687E-2,-1.8529883E-1,2.8844494E-1,1.7021356E0,1.8692803E-1,1.2993388E-1,-2.1172602E-2,1.821712E-1,1.4581722E-1,3.275196E-1,-1.22306526E-1,1.7317247E-1,-5.95101E-2,5.914917E-1,2.643045E0,1.2504002E-1,-3.5000473E-2,1.2181252E-1,2.5274594E0,-6.4125787E-3,-4.939525E-2,-1.06079996E-1,-9.6719995E-2,-7.5835906E-2,6.502388E-2,2.1107917E-1,2.8304693E-1,-7.668013E-2,1.6470422E-1,2.3497234E-1,9.801663E-2,1.6699027E-1,3.3519572E-1,1.7235123E-1,2.6947603E-1,9.6917115E-2,2.6528598E-3,2.1221808E-1,2.9757494E-1,1.3039576E-1,2.3431696E-2,2.6383647E-1,1.6206826E-1,1.971807E-1,2.7175453E-1,3.459858E-1,2.3539245E-1,6.571509E-2,2.2562383E-1],"split_indices":[3,0,3,0,0,0,3,0,4,4,0,0,2,0,0,4,3,4,1,4,4,0,0,4,4,2,1,3,3,1,1,0,0,1,0,0,0,0,0,0,0,0,0,0,0,0,0,0,0,0,0,0,0,0,0],"split_type":[0,0,0,0,0,0,0,0,0,0,0,0,0,0,0,0,0,0,0,0,0,0,0,0,0,0,0,0,0,0,0,0,0,0,0,0,0,0,0,0,0,0,0,0,0,0,0,0,0,0,0,0,0,0,0],"sum_hessian":[4.432E3,4.124E3,3.08E2,3.812E3,3.12E2,1.9E2,1.18E2,5.29E2,3.283E3,2.07E2,1.05E2,8E0,1.82E2,8.6E1,3.2E1,2.12E2,3.17E2,8.4E1,3.199E3,1.14E2,9.3E1,5E0,1.77E2,5.8E1,1.54E2,6E0,3.11E2,2.1E1,6.3E1,3.1E2,2.889E3,2E1,9.4E1,7.5E1,1.8E1,1.75E2,2E0,1.5E1,4.3E1,1.14E2,4E1,3E0,3E0,4.4E1,2.67E2,7E0,1.4E1,2E1,4.3E1,8.6E1,2.24E2,2.676E3,2.13E2,1E0,7.4E1],"tree_param":{"num_deleted":"0","num_feature":"5","num_nodes":"55","size_leaf_vector":"0"}},{"base_weights":[5.7551E0,5.9761243E0,4.643992E0,6.1363125E0,4.618872E0,5.0635805E0,3.8682811E0,4.021382E0,6.246307E0,5.028462E0,3.7284086E0,5.585723E0,4.506707E0,4.083738E0,3.259896E0,3.4127212E0,4.78772E0,4.8097634E0,6.4297023E0,3.3136134E0,5.239677E0,4.1487503E0,3.1138844E0,3.6746433E0,5.8804445E0,4.711629E0,3.6059368E0,4.558683E0,3.5865073E0,4.7535615E0,2.23518E0,3.52346E0,5.8542447E0,4.000983E0,5.240598E0,6.654171E0,4.8059926E0,4.4610653E0,1.8873446E0,2.2762902E0,5.3070855E0,3.527023E0,4.8351192E0,8.052387E-1,3.1412191E0,1.4947257E0,3.9881387E0,6.032367E0,3.5235493E0,5.566592E-1,4.730769E0,3.0977852E0,4.7149734E0,3.7339554E0,2.7237396E0,2.3855305E0,5.294326E0,1.1261673E0,3.261408E0,1.8888481E0,3.9378319E0,-1.8545055E-1,6.0271654E0,3.2844265E0,4.2861276E0,2.783684E0,5.3743424E0,5.310323E0,6.890512E0,5.279218E0,3.8788056E0,1.5063763E-2,4.737999E0,3.2182746E0,1.1755118E0,5.6305313E-1,2.4679873E0,2.4922886E0,5.3713555E0,4.2702513E0,2.657259E0,3.6491457E-1,1.9684026E0,4.2312355E0,6.192533E0,7.394414E-1,3.669597E0,4.8423953E0,3.4830189E0,4.8520827E0,3.228866E0],"categories":[],"categories_nodes":[],"categories_segments":[],"categories_sizes":[],"default_left":[1,1,1,1,1,1,1,1,1,1,1,1,1,1,0,1,1,1,1,1,1,1,1,1,1,1,0,1,1,1,1,1,1,1,1,1,1,1,1,1,1,1,0,0,0,1,0,1,1,0,1,0,1,0,0,0,0,0,0,0,0,0,0,0,0,0,0,0,0,0,0,0,0,0,0,0,0,0,0,0,0,0,0,0,0,0,0,0,0,0,0],"id":22,"left_children":[1,3,5,7,9,11,13,15,17,19,21,23,25,27,-1,29,31,33,35,37,39,41,43,45,47,49,-1,51,53,55,57,59,61,63,65,67,69,71,73,75,77,79,-1,-1,-1,81,-1,83,85,-1,87,-1,89,-1,-1,-1,-1,-1,-1,-1,-1,-1,-1,-1,-1,-1,-1,-1,-1,-1,-1,-1,-1,-1,-1,-1,-1,-1,-1,-1,-1,-1,-1,-1,-1,-1,-1,-1,-1,-1,-1],"loss_changes":[1.0609219E3,7.7478125E2,2.2126562E2,7.4278906E2,1.249541E2,1.1352344E2,2.1292725E1,6.1090088E1,7.9527344E2,7.9345215E1,2.014502E1,1.14694824E2,2.6572266E1,2.8756348E1,0E0,1.4094885E2,7.510669E1,1.0412695E2,9.8052344E2,4.3950836E1,3.50625E1,1.40979E1,1.0044556E0,1.7957672E1,5.3222168E1,1.2396973E1,0E0,6.8564453E0,2.2966309E0,4.3714233E1,5.6646423E1,1.626886E1,3.976013E1,1.2280029E1,6.0945312E1,7.3772656E2,1.2914258E2,2.0859833E1,1.1375275E1,9.0935516E-1,2.822168E1,1.580304E1,0E0,0E0,0E0,2.492693E0,0E0,2.9762695E1,3.3857422E0,0E0,9.319336E0,0E0,1.2452393E0,0E0,0E0,0E0,0E0,0E0,0E0,0E0,0E0,0E0,0E0,0E0,0E0,0E0,0E0,0E0,0E0,0E0,0E0,0E0,0E0,0E0,0E0,0E0,0E0,0E0,0E0,0E0,0E0,0E0,0E0,0E0,0E0,0E0,0E0,0E0,0E0,0E0,0E0],"parents":[2147483647,0,0,1,1,2,2,3,3,4,4,5,5,6,6,7,7,8,8,9,9,10,10,11,11,12,12,13,13,15,15,16,16,17,17,18,18,19,19,20,20,21,21,22,22,23,23,24,24,25,25,27,27,28,28,29,29,30,30,31,31,32,32,33,33,34,34,35,35,36,36,37,37,38,38,39,39,40,40,41,41,45,45,47,47,48,48,50,50,52,52],"right_children":[2,4,6,8,10,12,14,16,18,20,22,24,26,28,-1,30,32,34,36,38,40,42,44,46,48,50,-1,52,54,56,58,60,62,64,66,68,70,72,74,76,78,80,-1,-1,-1,82,-1,84,86,-1,88,-1,90,-1,-1,-1,-1,-1,-1,-1,-1,-1,-1,-1,-1,-1,-1,-1,-1,-1,-1,-1,-1,-1,-1,-1,-1,-1,-1,-1,-1,-1,-1,-1,-1,-1,-1,-1,-1,-1,-1],"split_conditions":[-1.2295417E-1,2.5295217E-2,-6.8780124E-2,-1.18480906E-1,6.2281877E-2,1.530231E0,-4.6641573E-2,2.1552E0,-5.333408E-2,-1.7951721E-1,7.1858555E-2,3.967716E-1,2.6569004E0,1.5186714E0,1.629948E-1,4.4482845E-1,-1.3143113E-1,-7.031502E-2,5.3284407E-2,8.876128E-4,-5.305957E-2,1.8432E0,-5.1476218E-2,2.0984566E-1,5.534017E-2,-1.227502E-1,1.8029684E-1,5.029375E-1,2.4893415E0,1.5001327E-1,1.7184E0,2.4048E0,-1.4101586E-1,-7.847573E-2,-1.742096E-1,-1.245798E-1,7.1518846E-2,-2.5399697E-1,4.4868547E-1,-1.5027589E-1,2.0676689E-1,6.576E-1,2.4175596E-1,4.0261935E-2,1.5706097E-1,-1.197026E-1,1.9940694E-1,-1.17964916E-1,-1.1767861E-1,2.783296E-2,6.5473825E-2,1.5488927E-1,7.931718E-2,1.8669777E-1,1.3618699E-1,1.1927652E-1,2.647163E-1,5.6308366E-2,1.6307041E-1,9.4442405E-2,1.9689159E-1,-9.272528E-3,3.0135828E-1,1.6422133E-1,2.1430638E-1,1.391842E-1,2.6871714E-1,2.6551616E-1,3.445256E-1,2.6396093E-1,1.9394028E-1,7.5318816E-4,2.3689996E-1,1.6091374E-1,5.8775593E-2,2.8152658E-2,1.2339937E-1,1.2461443E-1,2.6856777E-1,2.1351257E-1,1.3286296E-1,1.8245729E-2,9.8420136E-2,2.1156178E-1,3.0962667E-1,3.6972072E-2,1.8347985E-1,2.4211977E-1,1.7415094E-1,2.4260414E-1,1.6144331E-1],"split_indices":[0,3,0,3,3,4,0,4,1,0,3,4,4,4,0,4,3,1,1,1,1,4,1,4,3,0,0,4,4,4,4,4,0,1,0,0,1,0,4,0,4,4,0,0,0,0,0,3,0,0,3,0,3,0,0,0,0,0,0,0,0,0,0,0,0,0,0,0,0,0,0,0,0,0,0,0,0,0,0,0,0,0,0,0,0,0,0,0,0,0,0],"split_type":[0,0,0,0,0,0,0,0,0,0,0,0,0,0,0,0,0,0,0,0,0,0,0,0,0,0,0,0,0,0,0,0,0,0,0,0,0,0,0,0,0,0,0,0,0,0,0,0,0,0,0,0,0,0,0,0,0,0,0,0,0,0,0,0,0,0,0,0,0,0,0,0,0,0,0,0,0,0,0,0,0,0,0,0,0,0,0,0,0,0,0],"sum_hessian":[4.432E3,3.693E3,7.39E2,3.3E3,3.93E2,4.76E2,2.63E2,1.65E2,3.135E3,2.66E2,1.27E2,2.41E2,2.35E2,1.9E2,7.3E1,9.5E1,7E1,3.58E2,2.777E3,3.1E1,2.35E2,7.2E1,5.5E1,3.4E1,2.07E2,1.88E2,4.7E1,9.3E1,9.7E1,4.3E1,5.2E1,3.4E1,3.6E1,1.28E2,2.3E2,2.437E3,3.4E2,1.6E1,1.5E1,6E0,2.29E2,4.1E1,3.1E1,1E0,5.4E1,5E0,2.9E1,1.93E2,1.4E1,1E0,1.87E2,1.1E1,8.2E1,8E1,1.7E1,9E0,3.4E1,2.6E1,2.6E1,8E0,2.6E1,1E0,3.5E1,4E1,8.8E1,1.3E1,2.17E2,3.68E2,2.069E3,2.22E2,1.18E2,1E0,1.5E1,4E0,1.1E1,1E0,5E0,6E0,2.23E2,2E1,2.1E1,2E0,3E0,1.8E1,1.75E2,1E0,1.3E1,1.69E2,1.8E1,7.3E1,9E0],"tree_param":{"num_deleted":"0","num_feature":"5","num_nodes":"91","size_leaf_vector":"0"}},{"base_weights":[5.4690495E0,5.678625E0,4.4154773E0,5.830418E0,4.3924656E0,4.8139277E0,3.6788247E0,3.827462E0,5.9345827E0,4.6158566E0,2.961714E0,5.3108077E0,4.2840176E0,3.835729E0,2.93056E0,3.2483702E0,4.5565515E0,4.571466E0,6.1086016E0,3.1135337E0,4.767697E0,7.851076E-1,2.987014E0,3.4999418E0,5.5899878E0,4.4783974E0,3.4293962E0,4.223991E0,3.3887496E0,4.5246105E0,2.12756E0,3.3556106E0,5.5694265E0,3.803868E0,4.9803348E0,6.321713E0,4.567036E0,4.1577997E0,1.8246912E0,4.985821E0,4.003194E0,1.4394337E0,3.795379E0,5.727401E0,3.2767406E0,5.427427E-1,4.4964447E0,3.1680615E0,4.478867E0,3.5125747E0,2.5951188E0,2.278182E0,5.037173E0,1.0719441E0,3.104377E0,1.8048993E0,3.7482324E0,-1.8081427E-1,5.7341785E0,3.1356053E0,4.0795856E0,3.5095115E0,5.199213E0,6.536423E0,4.9400373E0,4.903881E0,3.4067802E0,8.619725E-1,4.515905E0,2.9266906E0,1.1216339E0,2.1841257E0,5.04997E0,3.3846757E0,4.5780225E0,3.5275078E-1,1.8945875E0,4.39902E0,5.932967E0,7.209554E-1,3.4178813E0,4.6447725E0,3.5954034E0,4.6365232E0,3.10714E0],"categories":[],"categories_nodes":[],"categories_segments":[],"categories_sizes":[],"default_left":[1,1,1,1,1,1,1,1,1,1,1,1,1,1,0,1,1,1,1,1,1,0,0,1,1,1,0,1,1,1,1,1,1,1,1,1,1,1,1,1,1,1,0,1,1,0,1,0,1,0,0,0,0,0,0,0,0,0,0,0,0,0,0,0,0,0,0,0,0,0,0,0,0,0,0,0,0,0,0,0,0,0,0,0,0],"id":23,"left_children":[1,3,5,7,9,11,13,15,17,19,21,23,25,27,-1,29,31,33,35,37,39,-1,-1,41,43,45,-1,47,49,51,53,55,57,59,61,63,65,67,69,71,73,75,-1,77,79,-1,81,-1,83,-1,-1,-1,-1,-1,-1,-1,-1,-1,-1,-1,-1,-1,-1,-1,-1,-1,-1,-1,-1,-1,-1,-1,-1,-1,-1,-1,-1,-1,-1,-1,-1,-1,-1,-1,-1],"loss_changes":[9.537344E2,6.955703E2,1.9949512E2,6.66E2,1.122583E2,1.0284277E2,1.975415E1,5.52854E1,7.1596094E2,6.248633E1,7.387085E-1,1.0278076E2,2.384668E1,2.2998291E1,0E0,1.27694275E2,6.76759E1,9.372656E1,8.8377344E2,3.8173706E1,3.1067871E1,0E0,0E0,1.5843048E1,4.734961E1,1.0983887E1,0E0,1.5684204E1,1.2028809E0,3.91875E1,5.1322876E1,1.4544312E1,3.6089233E1,1.097644E1,5.611963E1,6.9096875E2,1.1656543E2,1.735199E1,9.888393E0,3.1026367E1,1.0459351E1,2.2993298E0,0E0,2.7149414E1,2.5860138E0,0E0,8.42627E0,0E0,4.408325E0,0E0,0E0,0E0,0E0,0E0,0E0,0E0,0E0,0E0,0E0,0E0,0E0,0E0,0E0,0E0,0E0,0E0,0E0,0E0,0E0,0E0,0E0,0E0,0E0,0E0,0E0,0E0,0E0,0E0,0E0,0E0,0E0,0E0,0E0,0E0,0E0],"parents":[2147483647,0,0,1,1,2,2,3,3,4,4,5,5,6,6,7,7,8,8,9,9,10,10,11,11,12,12,13,13,15,15,16,16,17,17,18,18,19,19,20,20,23,23,24,24,25,25,27,27,28,28,29,29,30,30,31,31,32,32,33,33,34,34,35,35,36,36,37,37,38,38,39,39,40,40,41,41,43,43,44,44,46,46,48,48],"right_children":[2,4,6,8,10,12,14,16,18,20,22,24,26,28,-1,30,32,34,36,38,40,-1,-1,42,44,46,-1,48,50,52,54,56,58,60,62,64,66,68,70,72,74,76,-1,78,80,-1,82,-1,84,-1,-1,-1,-1,-1,-1,-1,-1,-1,-1,-1,-1,-1,-1,-1,-1,-1,-1,-1,-1,-1,-1,-1,-1,-1,-1,-1,-1,-1,-1,-1,-1,-1,-1,-1,-1],"split_conditions":[-1.2295417E-1,2.5295217E-2,-6.8780124E-2,-1.18480906E-1,7.1858555E-2,1.530231E0,-4.346941E-2,2.1552E0,-5.333408E-2,-1.7951721E-1,-5.1476218E-2,3.967716E-1,2.6569004E0,1.5186714E0,1.46528E-1,4.4482845E-1,-1.3143113E-1,-7.031502E-2,5.3284407E-2,8.876128E-4,6.0854048E-2,3.925538E-2,1.493507E-1,2.0984566E-1,5.755533E-2,-1.227502E-1,1.7146981E-1,6.2102103E-1,2.4893415E0,1.5001327E-1,1.7184E0,2.4048E0,-1.4101586E-1,-7.681173E-2,-1.3500904E-1,2.2539277E0,7.324892E-2,-2.5399697E-1,4.4868547E-1,-5.305957E-2,1.7808001E0,-1.197026E-1,1.8976896E-1,-1.05456084E-1,-1.1767861E-1,2.7137136E-2,4.557457E-2,1.5840308E-1,8.063696E-2,1.7562874E-1,1.2975594E-1,1.139091E-1,2.5185865E-1,5.3597208E-2,1.5521885E-1,9.024497E-2,1.8741162E-1,-9.040713E-3,2.8670892E-1,1.5678027E-1,2.0397928E-1,1.7547558E-1,2.5996065E-1,3.2682118E-1,2.4700187E-1,2.4519406E-1,1.7033902E-1,4.3098625E-2,2.2579525E-1,1.4633453E-1,5.6081694E-2,1.0920628E-1,2.524985E-1,1.6923378E-1,2.2890113E-1,1.763754E-2,9.472938E-2,2.1995102E-1,2.9664835E-1,3.6047768E-2,1.7089407E-1,2.3223864E-1,1.7977017E-1,2.3182617E-1,1.55357E-1],"split_indices":[0,3,0,3,3,4,0,4,1,0,1,4,4,4,0,4,3,1,1,1,3,0,0,4,3,0,0,4,4,4,4,4,0,1,0,4,1,0,4,1,4,0,0,3,0,0,3,0,3,0,0,0,0,0,0,0,0,0,0,0,0,0,0,0,0,0,0,0,0,0,0,0,0,0,0,0,0,0,0,0,0,0,0,0,0],"split_type":[0,0,0,0,0,0,0,0,0,0,0,0,0,0,0,0,0,0,0,0,0,0,0,0,0,0,0,0,0,0,0,0,0,0,0,0,0,0,0,0,0,0,0,0,0,0,0,0,0,0,0,0,0,0,0,0,0,0,0,0,0,0,0,0,0,0,0,0,0,0,0,0,0,0,0,0,0,0,0,0,0,0,0,0,0],"sum_hessian":[4.432E3,3.693E3,7.39E2,3.3E3,3.93E2,4.76E2,2.63E2,1.65E2,3.135E3,3.38E2,5.5E1,2.41E2,2.35E2,2.14E2,4.9E1,9.5E1,7E1,3.58E2,2.777E3,3.3E1,3.05E2,1E0,5.4E1,3.4E1,2.07E2,1.88E2,4.7E1,1.1E2,1.04E2,4.3E1,5.2E1,3.4E1,3.6E1,1.28E2,2.3E2,2.437E3,3.4E2,1.7E1,1.6E1,2.33E2,7.2E1,5E0,2.9E1,1.94E2,1.3E1,1E0,1.87E2,2.4E1,8.6E1,8.7E1,1.7E1,9E0,3.4E1,2.6E1,2.6E1,8E0,2.6E1,1E0,3.5E1,4.1E1,8.7E1,3.2E1,1.98E2,2.106E3,3.31E2,2.61E2,7.9E1,2E0,1.5E1,5E0,1.1E1,6E0,2.27E2,3.8E1,3.4E1,2E0,3E0,2.9E1,1.65E2,1E0,1.2E1,1.57E2,3E1,7.5E1,1.1E1],"tree_param":{"num_deleted":"0","num_feature":"5","num_nodes":"85","size_leaf_vector":"0"}},{"base_weights":[5.197169E0,5.3549585E0,3.9367752E0,5.5027E0,4.1466737E0,4.2405167E0,3.008771E0,2.7388995E0,5.568108E0,4.4805145E0,3.27863E0,2.6833146E0,4.3121166E0,3.243799E0,2.6119275E0,4.297796E0,1.7754151E0,4.326324E0,5.718097E0,4.99327E0,3.9685986E0,3.4938848E0,2.7751832E0,3.1505542E0,1.1458701E0,4.5647244E0,3.787964E0,1.308505E0,3.2788959E0,2.3080459E0,5.006873E0,3.02762E0,9.866057E-1,3.5842154E0,4.717918E0,5.8938594E0,4.379489E0,2.3990614E0,5.1216235E0,4.150658E0,3.04132E0,3.7209907E0,2.4670584E0,3.7471323E0,1.3272867E0,4.384006E-1,1.3900046E0,2.1422944E0,4.608261E0,3.4770486E0,4.4812756E0,8.132718E-1,2.5800805E0,5.1312027E0,1.1979761E0,7.33072E-1,3.2418437E0,-1.327961E-1,1.7768267E0,2.9498422E0,3.854529E0,2.0059023E0,4.8266373E0,4.293793E0,6.097851E0,4.8087654E0,3.5202308E0,9.1537905E-1,5.1447988E0,1.8472054E0,4.2086625E0,2.1670556E0,3.868626E0,6.4263725E-1,4.0206723E0,1.5345514E0,2.4911404E-1,4.7702065E0,3.66874E0],"categories":[],"categories_nodes":[],"categories_segments":[],"categories_sizes":[],"default_left":[1,1,1,1,1,1,1,1,1,1,1,1,1,1,0,1,1,1,1,1,1,1,0,1,1,1,1,0,0,1,1,1,1,1,1,1,1,0,1,1,0,1,0,1,1,0,0,0,1,0,0,0,0,0,0,0,0,0,0,0,0,0,0,0,0,0,0,0,0,0,0,0,0,0,0,0,0,0,0],"id":24,"left_children":[1,3,5,7,9,11,13,15,17,19,21,23,25,27,-1,29,31,33,35,37,39,41,-1,43,45,47,49,-1,-1,51,53,55,57,59,61,63,65,-1,67,69,-1,71,-1,73,75,-1,-1,-1,77,-1,-1,-1,-1,-1,-1,-1,-1,-1,-1,-1,-1,-1,-1,-1,-1,-1,-1,-1,-1,-1,-1,-1,-1,-1,-1,-1,-1,-1,-1],"loss_changes":[8.6053906E2,6.799844E2,1.2733252E2,6.183672E2,1.10788086E2,2.9905273E1,3.279419E0,1.17033264E2,6.128125E2,6.1554688E1,3.7416992E0,1.0038635E1,2.9581055E1,8.0371094E-1,0E0,3.2181458E1,4.9363754E1,9.148535E1,6.9202344E2,3.7992676E1,1.4387451E1,1.0175598E1,0E0,1.0254578E1,4.2692757E-1,1.4806152E1,1.0501343E1,0E0,0E0,1.9679947E0,4.271179E0,7.454422E0,3.03115E1,1.1436523E1,6.137744E1,8.531328E2,1.1512402E2,0E0,9.230225E0,9.729004E0,0E0,6.7579346E0,0E0,5.908203E0,7.350569E-1,0E0,0E0,0E0,1.7341797E1,0E0,0E0,0E0,0E0,0E0,0E0,0E0,0E0,0E0,0E0,0E0,0E0,0E0,0E0,0E0,0E0,0E0,0E0,0E0,0E0,0E0,0E0,0E0,0E0,0E0,0E0,0E0,0E0,0E0,0E0],"parents":[2147483647,0,0,1,1,2,2,3,3,4,4,5,5,6,6,7,7,8,8,9,9,10,10,11,11,12,12,13,13,15,15,16,16,17,17,18,18,19,19,20,20,21,21,23,23,24,24,25,25,26,26,29,29,30,30,31,31,32,32,33,33,34,34,35,35,36,36,38,38,39,39,41,41,43,43,44,44,48,48],"right_children":[2,4,6,8,10,12,14,16,18,20,22,24,26,28,-1,30,32,34,36,38,40,42,-1,44,46,48,50,-1,-1,52,54,56,58,60,62,64,66,-1,68,70,-1,72,-1,74,76,-1,-1,-1,78,-1,-1,-1,-1,-1,-1,-1,-1,-1,-1,-1,-1,-1,-1,-1,-1,-1,-1,-1,-1,-1,-1,-1,-1,-1,-1,-1,-1,-1,-1],"split_conditions":[3.6215473E-2,-1.0390076E-1,7.259788E-2,1.9602233E-1,-6.003915E-2,-1.7911774E-1,8.731423E-2,-1.6882467E-1,-5.333408E-2,1.4898646E0,1.7764434E0,4.193419E-4,5.6196623E-2,7.361518E-2,1.3059638E-1,1.0133445E-1,-1.0278076E-1,-7.031502E-2,5.3284407E-2,3.0650935E-1,2.6308737E0,-3.91984E-2,1.3875917E-1,2.4513692E-2,4.621639E-2,2.0786132E-1,2.1808963E0,6.5425254E-2,1.639448E-1,-1.500698E-2,1.8677984E-1,-1.3348636E-1,1.3482194E-1,-7.67954E-2,-1.7296022E-1,-9.381513E-2,7.082746E-2,1.1995307E-1,-2.3966044E-2,-1.4321071E-1,1.52066E-1,4.9550998E-1,1.2335292E-1,8.39763E-2,-1.8214616E-1,2.1920031E-2,6.950023E-2,1.07114725E-1,2.585609E0,1.7385243E-1,2.2406378E-1,4.0663593E-2,